<?xml version="1.0" encoding="UTF-8" standalone="yes"?>
<PMML xmlns="http://www.dmg.org/PMML-4_4" xmlns:data="http://jpmml.org/jpmml-model/InlineTable" version="4.4">
	<Header>
		<Application name="SkLearn2PMML package" version="0.107.1"/>
		<Timestamp>2024-05-10T11:21:10Z</Timestamp>
	</Header>
	<DataDictionary>
		<DataField name="y" optype="categorical" dataType="integer">
			<Value value="0"/>
			<Value value="1"/>
		</DataField>
		<DataField name="x1" optype="continuous" dataType="double"/>
		<DataField name="x2" optype="continuous" dataType="double"/>
		<DataField name="x3" optype="continuous" dataType="double"/>
		<DataField name="x4" optype="continuous" dataType="double"/>
		<DataField name="x5" optype="continuous" dataType="double"/>
		<DataField name="x6" optype="continuous" dataType="double"/>
		<DataField name="x7" optype="continuous" dataType="double"/>
		<DataField name="x8" optype="continuous" dataType="double"/>
		<DataField name="x9" optype="continuous" dataType="double"/>
		<DataField name="x10" optype="continuous" dataType="double"/>
		<DataField name="x11" optype="continuous" dataType="double"/>
		<DataField name="x12" optype="continuous" dataType="double"/>
		<DataField name="x13" optype="continuous" dataType="double"/>
		<DataField name="x14" optype="continuous" dataType="double"/>
		<DataField name="x15" optype="continuous" dataType="double"/>
		<DataField name="x16" optype="continuous" dataType="double"/>
		<DataField name="x17" optype="continuous" dataType="double"/>
		<DataField name="x18" optype="continuous" dataType="double"/>
		<DataField name="x19" optype="continuous" dataType="double"/>
		<DataField name="x20" optype="continuous" dataType="double"/>
		<DataField name="x21" optype="continuous" dataType="double"/>
		<DataField name="x22" optype="continuous" dataType="double"/>
		<DataField name="x23" optype="continuous" dataType="double"/>
		<DataField name="x24" optype="continuous" dataType="double"/>
		<DataField name="x25" optype="continuous" dataType="double"/>
		<DataField name="x26" optype="continuous" dataType="double"/>
		<DataField name="x27" optype="continuous" dataType="double"/>
		<DataField name="x28" optype="continuous" dataType="double"/>
		<DataField name="x29" optype="continuous" dataType="double"/>
		<DataField name="x30" optype="continuous" dataType="double"/>
		<DataField name="x31" optype="continuous" dataType="double"/>
		<DataField name="x32" optype="continuous" dataType="double"/>
		<DataField name="x33" optype="continuous" dataType="double"/>
		<DataField name="x34" optype="continuous" dataType="double"/>
		<DataField name="x35" optype="continuous" dataType="double"/>
		<DataField name="x36" optype="continuous" dataType="double"/>
		<DataField name="x37" optype="continuous" dataType="double"/>
		<DataField name="x38" optype="continuous" dataType="double"/>
		<DataField name="x39" optype="continuous" dataType="double"/>
		<DataField name="x40" optype="continuous" dataType="double"/>
		<DataField name="x41" optype="continuous" dataType="double"/>
		<DataField name="x42" optype="continuous" dataType="double"/>
		<DataField name="x43" optype="continuous" dataType="double"/>
		<DataField name="x44" optype="continuous" dataType="double"/>
		<DataField name="x45" optype="continuous" dataType="double"/>
		<DataField name="x46" optype="continuous" dataType="double"/>
		<DataField name="x47" optype="continuous" dataType="double"/>
		<DataField name="x48" optype="continuous" dataType="double"/>
		<DataField name="x49" optype="continuous" dataType="double"/>
		<DataField name="x50" optype="continuous" dataType="double"/>
		<DataField name="x51" optype="continuous" dataType="double"/>
		<DataField name="x52" optype="continuous" dataType="double"/>
		<DataField name="x53" optype="continuous" dataType="double"/>
		<DataField name="x54" optype="continuous" dataType="double"/>
		<DataField name="x55" optype="continuous" dataType="double"/>
		<DataField name="x56" optype="continuous" dataType="double"/>
		<DataField name="x57" optype="continuous" dataType="double"/>
		<DataField name="x58" optype="continuous" dataType="double"/>
		<DataField name="x59" optype="continuous" dataType="double"/>
		<DataField name="x60" optype="continuous" dataType="double"/>
		<DataField name="x61" optype="continuous" dataType="double"/>
		<DataField name="x62" optype="continuous" dataType="double"/>
		<DataField name="x63" optype="continuous" dataType="double"/>
		<DataField name="x64" optype="continuous" dataType="double"/>
		<DataField name="x65" optype="continuous" dataType="double"/>
		<DataField name="x66" optype="continuous" dataType="double"/>
		<DataField name="x67" optype="continuous" dataType="double"/>
		<DataField name="x68" optype="continuous" dataType="double"/>
		<DataField name="x69" optype="continuous" dataType="double"/>
		<DataField name="x70" optype="continuous" dataType="double"/>
		<DataField name="x71" optype="continuous" dataType="double"/>
		<DataField name="x72" optype="continuous" dataType="double"/>
		<DataField name="x73" optype="continuous" dataType="double"/>
		<DataField name="x74" optype="continuous" dataType="double"/>
		<DataField name="x75" optype="continuous" dataType="double"/>
		<DataField name="x76" optype="continuous" dataType="double"/>
		<DataField name="x77" optype="continuous" dataType="double"/>
		<DataField name="x78" optype="continuous" dataType="double"/>
		<DataField name="x79" optype="continuous" dataType="double"/>
		<DataField name="x80" optype="continuous" dataType="double"/>
		<DataField name="x81" optype="continuous" dataType="double"/>
		<DataField name="x82" optype="continuous" dataType="double"/>
		<DataField name="x83" optype="continuous" dataType="double"/>
		<DataField name="x84" optype="continuous" dataType="double"/>
		<DataField name="x85" optype="continuous" dataType="double"/>
		<DataField name="x86" optype="continuous" dataType="double"/>
		<DataField name="x87" optype="continuous" dataType="double"/>
		<DataField name="x88" optype="continuous" dataType="double"/>
		<DataField name="x89" optype="continuous" dataType="double"/>
		<DataField name="x90" optype="continuous" dataType="double"/>
		<DataField name="x91" optype="continuous" dataType="double"/>
		<DataField name="x92" optype="continuous" dataType="double"/>
		<DataField name="x93" optype="continuous" dataType="double"/>
		<DataField name="x94" optype="continuous" dataType="double"/>
		<DataField name="x95" optype="continuous" dataType="double"/>
		<DataField name="x96" optype="continuous" dataType="double"/>
		<DataField name="x97" optype="continuous" dataType="double"/>
		<DataField name="x98" optype="continuous" dataType="double"/>
		<DataField name="x99" optype="continuous" dataType="double"/>
		<DataField name="x100" optype="continuous" dataType="double"/>
		<DataField name="x101" optype="continuous" dataType="double"/>
		<DataField name="x102" optype="continuous" dataType="double"/>
		<DataField name="x103" optype="continuous" dataType="double"/>
		<DataField name="x104" optype="continuous" dataType="double"/>
		<DataField name="x105" optype="continuous" dataType="double"/>
		<DataField name="x106" optype="continuous" dataType="double"/>
		<DataField name="x107" optype="continuous" dataType="double"/>
		<DataField name="x108" optype="continuous" dataType="double"/>
		<DataField name="x109" optype="continuous" dataType="double"/>
		<DataField name="x110" optype="continuous" dataType="double"/>
		<DataField name="x111" optype="continuous" dataType="double"/>
		<DataField name="x112" optype="continuous" dataType="double"/>
		<DataField name="x113" optype="continuous" dataType="double"/>
		<DataField name="x114" optype="continuous" dataType="double"/>
		<DataField name="x115" optype="continuous" dataType="double"/>
		<DataField name="x116" optype="continuous" dataType="double"/>
		<DataField name="x117" optype="continuous" dataType="double"/>
		<DataField name="x118" optype="continuous" dataType="double"/>
		<DataField name="x119" optype="continuous" dataType="double"/>
		<DataField name="x120" optype="continuous" dataType="double"/>
		<DataField name="x121" optype="continuous" dataType="double"/>
		<DataField name="x122" optype="continuous" dataType="double"/>
		<DataField name="x123" optype="continuous" dataType="double"/>
		<DataField name="x124" optype="continuous" dataType="double"/>
		<DataField name="x125" optype="continuous" dataType="double"/>
		<DataField name="x126" optype="continuous" dataType="double"/>
		<DataField name="x127" optype="continuous" dataType="double"/>
		<DataField name="x128" optype="continuous" dataType="double"/>
		<DataField name="x129" optype="continuous" dataType="double"/>
		<DataField name="x130" optype="continuous" dataType="double"/>
		<DataField name="x131" optype="continuous" dataType="double"/>
		<DataField name="x132" optype="continuous" dataType="double"/>
		<DataField name="x133" optype="continuous" dataType="double"/>
		<DataField name="x134" optype="continuous" dataType="double"/>
		<DataField name="x135" optype="continuous" dataType="double"/>
		<DataField name="x136" optype="continuous" dataType="double"/>
		<DataField name="x137" optype="continuous" dataType="double"/>
		<DataField name="x138" optype="continuous" dataType="double"/>
		<DataField name="x139" optype="continuous" dataType="double"/>
		<DataField name="x140" optype="continuous" dataType="double"/>
		<DataField name="x141" optype="continuous" dataType="double"/>
		<DataField name="x142" optype="continuous" dataType="double"/>
		<DataField name="x143" optype="continuous" dataType="double"/>
		<DataField name="x144" optype="continuous" dataType="double"/>
		<DataField name="x145" optype="continuous" dataType="double"/>
		<DataField name="x146" optype="continuous" dataType="double"/>
		<DataField name="x147" optype="continuous" dataType="double"/>
		<DataField name="x148" optype="continuous" dataType="double"/>
		<DataField name="x149" optype="continuous" dataType="double"/>
		<DataField name="x150" optype="continuous" dataType="double"/>
		<DataField name="x151" optype="continuous" dataType="double"/>
		<DataField name="x152" optype="continuous" dataType="double"/>
		<DataField name="x153" optype="continuous" dataType="double"/>
		<DataField name="x154" optype="continuous" dataType="double"/>
		<DataField name="x155" optype="continuous" dataType="double"/>
		<DataField name="x156" optype="continuous" dataType="double"/>
		<DataField name="x157" optype="continuous" dataType="double"/>
		<DataField name="x158" optype="continuous" dataType="double"/>
		<DataField name="x159" optype="continuous" dataType="double"/>
		<DataField name="x160" optype="continuous" dataType="double"/>
		<DataField name="x161" optype="continuous" dataType="double"/>
		<DataField name="x162" optype="continuous" dataType="double"/>
		<DataField name="x163" optype="continuous" dataType="double"/>
		<DataField name="x164" optype="continuous" dataType="double"/>
		<DataField name="x165" optype="continuous" dataType="double"/>
		<DataField name="x166" optype="continuous" dataType="double"/>
		<DataField name="x167" optype="continuous" dataType="double"/>
		<DataField name="x168" optype="continuous" dataType="double"/>
		<DataField name="x169" optype="continuous" dataType="double"/>
		<DataField name="x170" optype="continuous" dataType="double"/>
		<DataField name="x171" optype="continuous" dataType="double"/>
		<DataField name="x172" optype="continuous" dataType="double"/>
		<DataField name="x173" optype="continuous" dataType="double"/>
		<DataField name="x174" optype="continuous" dataType="double"/>
		<DataField name="x175" optype="continuous" dataType="double"/>
		<DataField name="x176" optype="continuous" dataType="double"/>
		<DataField name="x177" optype="continuous" dataType="double"/>
		<DataField name="x178" optype="continuous" dataType="double"/>
	</DataDictionary>
	<NeuralNetwork functionName="classification" algorithmName="sklearn.neural_network._multilayer_perceptron.MLPClassifier" activationFunction="tanh">
		<MiningSchema>
			<MiningField name="y" usageType="target"/>
			<MiningField name="x1"/>
			<MiningField name="x2"/>
			<MiningField name="x3"/>
			<MiningField name="x4"/>
			<MiningField name="x5"/>
			<MiningField name="x6"/>
			<MiningField name="x7"/>
			<MiningField name="x8"/>
			<MiningField name="x9"/>
			<MiningField name="x10"/>
			<MiningField name="x11"/>
			<MiningField name="x12"/>
			<MiningField name="x13"/>
			<MiningField name="x14"/>
			<MiningField name="x15"/>
			<MiningField name="x16"/>
			<MiningField name="x17"/>
			<MiningField name="x18"/>
			<MiningField name="x19"/>
			<MiningField name="x20"/>
			<MiningField name="x21"/>
			<MiningField name="x22"/>
			<MiningField name="x23"/>
			<MiningField name="x24"/>
			<MiningField name="x25"/>
			<MiningField name="x26"/>
			<MiningField name="x27"/>
			<MiningField name="x28"/>
			<MiningField name="x29"/>
			<MiningField name="x30"/>
			<MiningField name="x31"/>
			<MiningField name="x32"/>
			<MiningField name="x33"/>
			<MiningField name="x34"/>
			<MiningField name="x35"/>
			<MiningField name="x36"/>
			<MiningField name="x37"/>
			<MiningField name="x38"/>
			<MiningField name="x39"/>
			<MiningField name="x40"/>
			<MiningField name="x41"/>
			<MiningField name="x42"/>
			<MiningField name="x43"/>
			<MiningField name="x44"/>
			<MiningField name="x45"/>
			<MiningField name="x46"/>
			<MiningField name="x47"/>
			<MiningField name="x48"/>
			<MiningField name="x49"/>
			<MiningField name="x50"/>
			<MiningField name="x51"/>
			<MiningField name="x52"/>
			<MiningField name="x53"/>
			<MiningField name="x54"/>
			<MiningField name="x55"/>
			<MiningField name="x56"/>
			<MiningField name="x57"/>
			<MiningField name="x58"/>
			<MiningField name="x59"/>
			<MiningField name="x60"/>
			<MiningField name="x61"/>
			<MiningField name="x62"/>
			<MiningField name="x63"/>
			<MiningField name="x64"/>
			<MiningField name="x65"/>
			<MiningField name="x66"/>
			<MiningField name="x67"/>
			<MiningField name="x68"/>
			<MiningField name="x69"/>
			<MiningField name="x70"/>
			<MiningField name="x71"/>
			<MiningField name="x72"/>
			<MiningField name="x73"/>
			<MiningField name="x74"/>
			<MiningField name="x75"/>
			<MiningField name="x76"/>
			<MiningField name="x77"/>
			<MiningField name="x78"/>
			<MiningField name="x79"/>
			<MiningField name="x80"/>
			<MiningField name="x81"/>
			<MiningField name="x82"/>
			<MiningField name="x83"/>
			<MiningField name="x84"/>
			<MiningField name="x85"/>
			<MiningField name="x86"/>
			<MiningField name="x87"/>
			<MiningField name="x88"/>
			<MiningField name="x89"/>
			<MiningField name="x90"/>
			<MiningField name="x91"/>
			<MiningField name="x92"/>
			<MiningField name="x93"/>
			<MiningField name="x94"/>
			<MiningField name="x95"/>
			<MiningField name="x96"/>
			<MiningField name="x97"/>
			<MiningField name="x98"/>
			<MiningField name="x99"/>
			<MiningField name="x100"/>
			<MiningField name="x101"/>
			<MiningField name="x102"/>
			<MiningField name="x103"/>
			<MiningField name="x104"/>
			<MiningField name="x105"/>
			<MiningField name="x106"/>
			<MiningField name="x107"/>
			<MiningField name="x108"/>
			<MiningField name="x109"/>
			<MiningField name="x110"/>
			<MiningField name="x111"/>
			<MiningField name="x112"/>
			<MiningField name="x113"/>
			<MiningField name="x114"/>
			<MiningField name="x115"/>
			<MiningField name="x116"/>
			<MiningField name="x117"/>
			<MiningField name="x118"/>
			<MiningField name="x119"/>
			<MiningField name="x120"/>
			<MiningField name="x121"/>
			<MiningField name="x122"/>
			<MiningField name="x123"/>
			<MiningField name="x124"/>
			<MiningField name="x125"/>
			<MiningField name="x126"/>
			<MiningField name="x127"/>
			<MiningField name="x128"/>
			<MiningField name="x129"/>
			<MiningField name="x130"/>
			<MiningField name="x131"/>
			<MiningField name="x132"/>
			<MiningField name="x133"/>
			<MiningField name="x134"/>
			<MiningField name="x135"/>
			<MiningField name="x136"/>
			<MiningField name="x137"/>
			<MiningField name="x138"/>
			<MiningField name="x139"/>
			<MiningField name="x140"/>
			<MiningField name="x141"/>
			<MiningField name="x142"/>
			<MiningField name="x143"/>
			<MiningField name="x144"/>
			<MiningField name="x145"/>
			<MiningField name="x146"/>
			<MiningField name="x147"/>
			<MiningField name="x148"/>
			<MiningField name="x149"/>
			<MiningField name="x150"/>
			<MiningField name="x151"/>
			<MiningField name="x152"/>
			<MiningField name="x153"/>
			<MiningField name="x154"/>
			<MiningField name="x155"/>
			<MiningField name="x156"/>
			<MiningField name="x157"/>
			<MiningField name="x158"/>
			<MiningField name="x159"/>
			<MiningField name="x160"/>
			<MiningField name="x161"/>
			<MiningField name="x162"/>
			<MiningField name="x163"/>
			<MiningField name="x164"/>
			<MiningField name="x165"/>
			<MiningField name="x166"/>
			<MiningField name="x167"/>
			<MiningField name="x168"/>
			<MiningField name="x169"/>
			<MiningField name="x170"/>
			<MiningField name="x171"/>
			<MiningField name="x172"/>
			<MiningField name="x173"/>
			<MiningField name="x174"/>
			<MiningField name="x175"/>
			<MiningField name="x176"/>
			<MiningField name="x177"/>
			<MiningField name="x178"/>
		</MiningSchema>
		<Output>
			<OutputField name="probability(0)" optype="continuous" dataType="double" feature="probability" value="0"/>
			<OutputField name="probability(1)" optype="continuous" dataType="double" feature="probability" value="1"/>
		</Output>
		<NeuralInputs>
			<NeuralInput id="input/1">
				<DerivedField optype="continuous" dataType="double">
					<FieldRef field="x1"/>
				</DerivedField>
			</NeuralInput>
			<NeuralInput id="input/2">
				<DerivedField optype="continuous" dataType="double">
					<FieldRef field="x2"/>
				</DerivedField>
			</NeuralInput>
			<NeuralInput id="input/3">
				<DerivedField optype="continuous" dataType="double">
					<FieldRef field="x3"/>
				</DerivedField>
			</NeuralInput>
			<NeuralInput id="input/4">
				<DerivedField optype="continuous" dataType="double">
					<FieldRef field="x4"/>
				</DerivedField>
			</NeuralInput>
			<NeuralInput id="input/5">
				<DerivedField optype="continuous" dataType="double">
					<FieldRef field="x5"/>
				</DerivedField>
			</NeuralInput>
			<NeuralInput id="input/6">
				<DerivedField optype="continuous" dataType="double">
					<FieldRef field="x6"/>
				</DerivedField>
			</NeuralInput>
			<NeuralInput id="input/7">
				<DerivedField optype="continuous" dataType="double">
					<FieldRef field="x7"/>
				</DerivedField>
			</NeuralInput>
			<NeuralInput id="input/8">
				<DerivedField optype="continuous" dataType="double">
					<FieldRef field="x8"/>
				</DerivedField>
			</NeuralInput>
			<NeuralInput id="input/9">
				<DerivedField optype="continuous" dataType="double">
					<FieldRef field="x9"/>
				</DerivedField>
			</NeuralInput>
			<NeuralInput id="input/10">
				<DerivedField optype="continuous" dataType="double">
					<FieldRef field="x10"/>
				</DerivedField>
			</NeuralInput>
			<NeuralInput id="input/11">
				<DerivedField optype="continuous" dataType="double">
					<FieldRef field="x11"/>
				</DerivedField>
			</NeuralInput>
			<NeuralInput id="input/12">
				<DerivedField optype="continuous" dataType="double">
					<FieldRef field="x12"/>
				</DerivedField>
			</NeuralInput>
			<NeuralInput id="input/13">
				<DerivedField optype="continuous" dataType="double">
					<FieldRef field="x13"/>
				</DerivedField>
			</NeuralInput>
			<NeuralInput id="input/14">
				<DerivedField optype="continuous" dataType="double">
					<FieldRef field="x14"/>
				</DerivedField>
			</NeuralInput>
			<NeuralInput id="input/15">
				<DerivedField optype="continuous" dataType="double">
					<FieldRef field="x15"/>
				</DerivedField>
			</NeuralInput>
			<NeuralInput id="input/16">
				<DerivedField optype="continuous" dataType="double">
					<FieldRef field="x16"/>
				</DerivedField>
			</NeuralInput>
			<NeuralInput id="input/17">
				<DerivedField optype="continuous" dataType="double">
					<FieldRef field="x17"/>
				</DerivedField>
			</NeuralInput>
			<NeuralInput id="input/18">
				<DerivedField optype="continuous" dataType="double">
					<FieldRef field="x18"/>
				</DerivedField>
			</NeuralInput>
			<NeuralInput id="input/19">
				<DerivedField optype="continuous" dataType="double">
					<FieldRef field="x19"/>
				</DerivedField>
			</NeuralInput>
			<NeuralInput id="input/20">
				<DerivedField optype="continuous" dataType="double">
					<FieldRef field="x20"/>
				</DerivedField>
			</NeuralInput>
			<NeuralInput id="input/21">
				<DerivedField optype="continuous" dataType="double">
					<FieldRef field="x21"/>
				</DerivedField>
			</NeuralInput>
			<NeuralInput id="input/22">
				<DerivedField optype="continuous" dataType="double">
					<FieldRef field="x22"/>
				</DerivedField>
			</NeuralInput>
			<NeuralInput id="input/23">
				<DerivedField optype="continuous" dataType="double">
					<FieldRef field="x23"/>
				</DerivedField>
			</NeuralInput>
			<NeuralInput id="input/24">
				<DerivedField optype="continuous" dataType="double">
					<FieldRef field="x24"/>
				</DerivedField>
			</NeuralInput>
			<NeuralInput id="input/25">
				<DerivedField optype="continuous" dataType="double">
					<FieldRef field="x25"/>
				</DerivedField>
			</NeuralInput>
			<NeuralInput id="input/26">
				<DerivedField optype="continuous" dataType="double">
					<FieldRef field="x26"/>
				</DerivedField>
			</NeuralInput>
			<NeuralInput id="input/27">
				<DerivedField optype="continuous" dataType="double">
					<FieldRef field="x27"/>
				</DerivedField>
			</NeuralInput>
			<NeuralInput id="input/28">
				<DerivedField optype="continuous" dataType="double">
					<FieldRef field="x28"/>
				</DerivedField>
			</NeuralInput>
			<NeuralInput id="input/29">
				<DerivedField optype="continuous" dataType="double">
					<FieldRef field="x29"/>
				</DerivedField>
			</NeuralInput>
			<NeuralInput id="input/30">
				<DerivedField optype="continuous" dataType="double">
					<FieldRef field="x30"/>
				</DerivedField>
			</NeuralInput>
			<NeuralInput id="input/31">
				<DerivedField optype="continuous" dataType="double">
					<FieldRef field="x31"/>
				</DerivedField>
			</NeuralInput>
			<NeuralInput id="input/32">
				<DerivedField optype="continuous" dataType="double">
					<FieldRef field="x32"/>
				</DerivedField>
			</NeuralInput>
			<NeuralInput id="input/33">
				<DerivedField optype="continuous" dataType="double">
					<FieldRef field="x33"/>
				</DerivedField>
			</NeuralInput>
			<NeuralInput id="input/34">
				<DerivedField optype="continuous" dataType="double">
					<FieldRef field="x34"/>
				</DerivedField>
			</NeuralInput>
			<NeuralInput id="input/35">
				<DerivedField optype="continuous" dataType="double">
					<FieldRef field="x35"/>
				</DerivedField>
			</NeuralInput>
			<NeuralInput id="input/36">
				<DerivedField optype="continuous" dataType="double">
					<FieldRef field="x36"/>
				</DerivedField>
			</NeuralInput>
			<NeuralInput id="input/37">
				<DerivedField optype="continuous" dataType="double">
					<FieldRef field="x37"/>
				</DerivedField>
			</NeuralInput>
			<NeuralInput id="input/38">
				<DerivedField optype="continuous" dataType="double">
					<FieldRef field="x38"/>
				</DerivedField>
			</NeuralInput>
			<NeuralInput id="input/39">
				<DerivedField optype="continuous" dataType="double">
					<FieldRef field="x39"/>
				</DerivedField>
			</NeuralInput>
			<NeuralInput id="input/40">
				<DerivedField optype="continuous" dataType="double">
					<FieldRef field="x40"/>
				</DerivedField>
			</NeuralInput>
			<NeuralInput id="input/41">
				<DerivedField optype="continuous" dataType="double">
					<FieldRef field="x41"/>
				</DerivedField>
			</NeuralInput>
			<NeuralInput id="input/42">
				<DerivedField optype="continuous" dataType="double">
					<FieldRef field="x42"/>
				</DerivedField>
			</NeuralInput>
			<NeuralInput id="input/43">
				<DerivedField optype="continuous" dataType="double">
					<FieldRef field="x43"/>
				</DerivedField>
			</NeuralInput>
			<NeuralInput id="input/44">
				<DerivedField optype="continuous" dataType="double">
					<FieldRef field="x44"/>
				</DerivedField>
			</NeuralInput>
			<NeuralInput id="input/45">
				<DerivedField optype="continuous" dataType="double">
					<FieldRef field="x45"/>
				</DerivedField>
			</NeuralInput>
			<NeuralInput id="input/46">
				<DerivedField optype="continuous" dataType="double">
					<FieldRef field="x46"/>
				</DerivedField>
			</NeuralInput>
			<NeuralInput id="input/47">
				<DerivedField optype="continuous" dataType="double">
					<FieldRef field="x47"/>
				</DerivedField>
			</NeuralInput>
			<NeuralInput id="input/48">
				<DerivedField optype="continuous" dataType="double">
					<FieldRef field="x48"/>
				</DerivedField>
			</NeuralInput>
			<NeuralInput id="input/49">
				<DerivedField optype="continuous" dataType="double">
					<FieldRef field="x49"/>
				</DerivedField>
			</NeuralInput>
			<NeuralInput id="input/50">
				<DerivedField optype="continuous" dataType="double">
					<FieldRef field="x50"/>
				</DerivedField>
			</NeuralInput>
			<NeuralInput id="input/51">
				<DerivedField optype="continuous" dataType="double">
					<FieldRef field="x51"/>
				</DerivedField>
			</NeuralInput>
			<NeuralInput id="input/52">
				<DerivedField optype="continuous" dataType="double">
					<FieldRef field="x52"/>
				</DerivedField>
			</NeuralInput>
			<NeuralInput id="input/53">
				<DerivedField optype="continuous" dataType="double">
					<FieldRef field="x53"/>
				</DerivedField>
			</NeuralInput>
			<NeuralInput id="input/54">
				<DerivedField optype="continuous" dataType="double">
					<FieldRef field="x54"/>
				</DerivedField>
			</NeuralInput>
			<NeuralInput id="input/55">
				<DerivedField optype="continuous" dataType="double">
					<FieldRef field="x55"/>
				</DerivedField>
			</NeuralInput>
			<NeuralInput id="input/56">
				<DerivedField optype="continuous" dataType="double">
					<FieldRef field="x56"/>
				</DerivedField>
			</NeuralInput>
			<NeuralInput id="input/57">
				<DerivedField optype="continuous" dataType="double">
					<FieldRef field="x57"/>
				</DerivedField>
			</NeuralInput>
			<NeuralInput id="input/58">
				<DerivedField optype="continuous" dataType="double">
					<FieldRef field="x58"/>
				</DerivedField>
			</NeuralInput>
			<NeuralInput id="input/59">
				<DerivedField optype="continuous" dataType="double">
					<FieldRef field="x59"/>
				</DerivedField>
			</NeuralInput>
			<NeuralInput id="input/60">
				<DerivedField optype="continuous" dataType="double">
					<FieldRef field="x60"/>
				</DerivedField>
			</NeuralInput>
			<NeuralInput id="input/61">
				<DerivedField optype="continuous" dataType="double">
					<FieldRef field="x61"/>
				</DerivedField>
			</NeuralInput>
			<NeuralInput id="input/62">
				<DerivedField optype="continuous" dataType="double">
					<FieldRef field="x62"/>
				</DerivedField>
			</NeuralInput>
			<NeuralInput id="input/63">
				<DerivedField optype="continuous" dataType="double">
					<FieldRef field="x63"/>
				</DerivedField>
			</NeuralInput>
			<NeuralInput id="input/64">
				<DerivedField optype="continuous" dataType="double">
					<FieldRef field="x64"/>
				</DerivedField>
			</NeuralInput>
			<NeuralInput id="input/65">
				<DerivedField optype="continuous" dataType="double">
					<FieldRef field="x65"/>
				</DerivedField>
			</NeuralInput>
			<NeuralInput id="input/66">
				<DerivedField optype="continuous" dataType="double">
					<FieldRef field="x66"/>
				</DerivedField>
			</NeuralInput>
			<NeuralInput id="input/67">
				<DerivedField optype="continuous" dataType="double">
					<FieldRef field="x67"/>
				</DerivedField>
			</NeuralInput>
			<NeuralInput id="input/68">
				<DerivedField optype="continuous" dataType="double">
					<FieldRef field="x68"/>
				</DerivedField>
			</NeuralInput>
			<NeuralInput id="input/69">
				<DerivedField optype="continuous" dataType="double">
					<FieldRef field="x69"/>
				</DerivedField>
			</NeuralInput>
			<NeuralInput id="input/70">
				<DerivedField optype="continuous" dataType="double">
					<FieldRef field="x70"/>
				</DerivedField>
			</NeuralInput>
			<NeuralInput id="input/71">
				<DerivedField optype="continuous" dataType="double">
					<FieldRef field="x71"/>
				</DerivedField>
			</NeuralInput>
			<NeuralInput id="input/72">
				<DerivedField optype="continuous" dataType="double">
					<FieldRef field="x72"/>
				</DerivedField>
			</NeuralInput>
			<NeuralInput id="input/73">
				<DerivedField optype="continuous" dataType="double">
					<FieldRef field="x73"/>
				</DerivedField>
			</NeuralInput>
			<NeuralInput id="input/74">
				<DerivedField optype="continuous" dataType="double">
					<FieldRef field="x74"/>
				</DerivedField>
			</NeuralInput>
			<NeuralInput id="input/75">
				<DerivedField optype="continuous" dataType="double">
					<FieldRef field="x75"/>
				</DerivedField>
			</NeuralInput>
			<NeuralInput id="input/76">
				<DerivedField optype="continuous" dataType="double">
					<FieldRef field="x76"/>
				</DerivedField>
			</NeuralInput>
			<NeuralInput id="input/77">
				<DerivedField optype="continuous" dataType="double">
					<FieldRef field="x77"/>
				</DerivedField>
			</NeuralInput>
			<NeuralInput id="input/78">
				<DerivedField optype="continuous" dataType="double">
					<FieldRef field="x78"/>
				</DerivedField>
			</NeuralInput>
			<NeuralInput id="input/79">
				<DerivedField optype="continuous" dataType="double">
					<FieldRef field="x79"/>
				</DerivedField>
			</NeuralInput>
			<NeuralInput id="input/80">
				<DerivedField optype="continuous" dataType="double">
					<FieldRef field="x80"/>
				</DerivedField>
			</NeuralInput>
			<NeuralInput id="input/81">
				<DerivedField optype="continuous" dataType="double">
					<FieldRef field="x81"/>
				</DerivedField>
			</NeuralInput>
			<NeuralInput id="input/82">
				<DerivedField optype="continuous" dataType="double">
					<FieldRef field="x82"/>
				</DerivedField>
			</NeuralInput>
			<NeuralInput id="input/83">
				<DerivedField optype="continuous" dataType="double">
					<FieldRef field="x83"/>
				</DerivedField>
			</NeuralInput>
			<NeuralInput id="input/84">
				<DerivedField optype="continuous" dataType="double">
					<FieldRef field="x84"/>
				</DerivedField>
			</NeuralInput>
			<NeuralInput id="input/85">
				<DerivedField optype="continuous" dataType="double">
					<FieldRef field="x85"/>
				</DerivedField>
			</NeuralInput>
			<NeuralInput id="input/86">
				<DerivedField optype="continuous" dataType="double">
					<FieldRef field="x86"/>
				</DerivedField>
			</NeuralInput>
			<NeuralInput id="input/87">
				<DerivedField optype="continuous" dataType="double">
					<FieldRef field="x87"/>
				</DerivedField>
			</NeuralInput>
			<NeuralInput id="input/88">
				<DerivedField optype="continuous" dataType="double">
					<FieldRef field="x88"/>
				</DerivedField>
			</NeuralInput>
			<NeuralInput id="input/89">
				<DerivedField optype="continuous" dataType="double">
					<FieldRef field="x89"/>
				</DerivedField>
			</NeuralInput>
			<NeuralInput id="input/90">
				<DerivedField optype="continuous" dataType="double">
					<FieldRef field="x90"/>
				</DerivedField>
			</NeuralInput>
			<NeuralInput id="input/91">
				<DerivedField optype="continuous" dataType="double">
					<FieldRef field="x91"/>
				</DerivedField>
			</NeuralInput>
			<NeuralInput id="input/92">
				<DerivedField optype="continuous" dataType="double">
					<FieldRef field="x92"/>
				</DerivedField>
			</NeuralInput>
			<NeuralInput id="input/93">
				<DerivedField optype="continuous" dataType="double">
					<FieldRef field="x93"/>
				</DerivedField>
			</NeuralInput>
			<NeuralInput id="input/94">
				<DerivedField optype="continuous" dataType="double">
					<FieldRef field="x94"/>
				</DerivedField>
			</NeuralInput>
			<NeuralInput id="input/95">
				<DerivedField optype="continuous" dataType="double">
					<FieldRef field="x95"/>
				</DerivedField>
			</NeuralInput>
			<NeuralInput id="input/96">
				<DerivedField optype="continuous" dataType="double">
					<FieldRef field="x96"/>
				</DerivedField>
			</NeuralInput>
			<NeuralInput id="input/97">
				<DerivedField optype="continuous" dataType="double">
					<FieldRef field="x97"/>
				</DerivedField>
			</NeuralInput>
			<NeuralInput id="input/98">
				<DerivedField optype="continuous" dataType="double">
					<FieldRef field="x98"/>
				</DerivedField>
			</NeuralInput>
			<NeuralInput id="input/99">
				<DerivedField optype="continuous" dataType="double">
					<FieldRef field="x99"/>
				</DerivedField>
			</NeuralInput>
			<NeuralInput id="input/100">
				<DerivedField optype="continuous" dataType="double">
					<FieldRef field="x100"/>
				</DerivedField>
			</NeuralInput>
			<NeuralInput id="input/101">
				<DerivedField optype="continuous" dataType="double">
					<FieldRef field="x101"/>
				</DerivedField>
			</NeuralInput>
			<NeuralInput id="input/102">
				<DerivedField optype="continuous" dataType="double">
					<FieldRef field="x102"/>
				</DerivedField>
			</NeuralInput>
			<NeuralInput id="input/103">
				<DerivedField optype="continuous" dataType="double">
					<FieldRef field="x103"/>
				</DerivedField>
			</NeuralInput>
			<NeuralInput id="input/104">
				<DerivedField optype="continuous" dataType="double">
					<FieldRef field="x104"/>
				</DerivedField>
			</NeuralInput>
			<NeuralInput id="input/105">
				<DerivedField optype="continuous" dataType="double">
					<FieldRef field="x105"/>
				</DerivedField>
			</NeuralInput>
			<NeuralInput id="input/106">
				<DerivedField optype="continuous" dataType="double">
					<FieldRef field="x106"/>
				</DerivedField>
			</NeuralInput>
			<NeuralInput id="input/107">
				<DerivedField optype="continuous" dataType="double">
					<FieldRef field="x107"/>
				</DerivedField>
			</NeuralInput>
			<NeuralInput id="input/108">
				<DerivedField optype="continuous" dataType="double">
					<FieldRef field="x108"/>
				</DerivedField>
			</NeuralInput>
			<NeuralInput id="input/109">
				<DerivedField optype="continuous" dataType="double">
					<FieldRef field="x109"/>
				</DerivedField>
			</NeuralInput>
			<NeuralInput id="input/110">
				<DerivedField optype="continuous" dataType="double">
					<FieldRef field="x110"/>
				</DerivedField>
			</NeuralInput>
			<NeuralInput id="input/111">
				<DerivedField optype="continuous" dataType="double">
					<FieldRef field="x111"/>
				</DerivedField>
			</NeuralInput>
			<NeuralInput id="input/112">
				<DerivedField optype="continuous" dataType="double">
					<FieldRef field="x112"/>
				</DerivedField>
			</NeuralInput>
			<NeuralInput id="input/113">
				<DerivedField optype="continuous" dataType="double">
					<FieldRef field="x113"/>
				</DerivedField>
			</NeuralInput>
			<NeuralInput id="input/114">
				<DerivedField optype="continuous" dataType="double">
					<FieldRef field="x114"/>
				</DerivedField>
			</NeuralInput>
			<NeuralInput id="input/115">
				<DerivedField optype="continuous" dataType="double">
					<FieldRef field="x115"/>
				</DerivedField>
			</NeuralInput>
			<NeuralInput id="input/116">
				<DerivedField optype="continuous" dataType="double">
					<FieldRef field="x116"/>
				</DerivedField>
			</NeuralInput>
			<NeuralInput id="input/117">
				<DerivedField optype="continuous" dataType="double">
					<FieldRef field="x117"/>
				</DerivedField>
			</NeuralInput>
			<NeuralInput id="input/118">
				<DerivedField optype="continuous" dataType="double">
					<FieldRef field="x118"/>
				</DerivedField>
			</NeuralInput>
			<NeuralInput id="input/119">
				<DerivedField optype="continuous" dataType="double">
					<FieldRef field="x119"/>
				</DerivedField>
			</NeuralInput>
			<NeuralInput id="input/120">
				<DerivedField optype="continuous" dataType="double">
					<FieldRef field="x120"/>
				</DerivedField>
			</NeuralInput>
			<NeuralInput id="input/121">
				<DerivedField optype="continuous" dataType="double">
					<FieldRef field="x121"/>
				</DerivedField>
			</NeuralInput>
			<NeuralInput id="input/122">
				<DerivedField optype="continuous" dataType="double">
					<FieldRef field="x122"/>
				</DerivedField>
			</NeuralInput>
			<NeuralInput id="input/123">
				<DerivedField optype="continuous" dataType="double">
					<FieldRef field="x123"/>
				</DerivedField>
			</NeuralInput>
			<NeuralInput id="input/124">
				<DerivedField optype="continuous" dataType="double">
					<FieldRef field="x124"/>
				</DerivedField>
			</NeuralInput>
			<NeuralInput id="input/125">
				<DerivedField optype="continuous" dataType="double">
					<FieldRef field="x125"/>
				</DerivedField>
			</NeuralInput>
			<NeuralInput id="input/126">
				<DerivedField optype="continuous" dataType="double">
					<FieldRef field="x126"/>
				</DerivedField>
			</NeuralInput>
			<NeuralInput id="input/127">
				<DerivedField optype="continuous" dataType="double">
					<FieldRef field="x127"/>
				</DerivedField>
			</NeuralInput>
			<NeuralInput id="input/128">
				<DerivedField optype="continuous" dataType="double">
					<FieldRef field="x128"/>
				</DerivedField>
			</NeuralInput>
			<NeuralInput id="input/129">
				<DerivedField optype="continuous" dataType="double">
					<FieldRef field="x129"/>
				</DerivedField>
			</NeuralInput>
			<NeuralInput id="input/130">
				<DerivedField optype="continuous" dataType="double">
					<FieldRef field="x130"/>
				</DerivedField>
			</NeuralInput>
			<NeuralInput id="input/131">
				<DerivedField optype="continuous" dataType="double">
					<FieldRef field="x131"/>
				</DerivedField>
			</NeuralInput>
			<NeuralInput id="input/132">
				<DerivedField optype="continuous" dataType="double">
					<FieldRef field="x132"/>
				</DerivedField>
			</NeuralInput>
			<NeuralInput id="input/133">
				<DerivedField optype="continuous" dataType="double">
					<FieldRef field="x133"/>
				</DerivedField>
			</NeuralInput>
			<NeuralInput id="input/134">
				<DerivedField optype="continuous" dataType="double">
					<FieldRef field="x134"/>
				</DerivedField>
			</NeuralInput>
			<NeuralInput id="input/135">
				<DerivedField optype="continuous" dataType="double">
					<FieldRef field="x135"/>
				</DerivedField>
			</NeuralInput>
			<NeuralInput id="input/136">
				<DerivedField optype="continuous" dataType="double">
					<FieldRef field="x136"/>
				</DerivedField>
			</NeuralInput>
			<NeuralInput id="input/137">
				<DerivedField optype="continuous" dataType="double">
					<FieldRef field="x137"/>
				</DerivedField>
			</NeuralInput>
			<NeuralInput id="input/138">
				<DerivedField optype="continuous" dataType="double">
					<FieldRef field="x138"/>
				</DerivedField>
			</NeuralInput>
			<NeuralInput id="input/139">
				<DerivedField optype="continuous" dataType="double">
					<FieldRef field="x139"/>
				</DerivedField>
			</NeuralInput>
			<NeuralInput id="input/140">
				<DerivedField optype="continuous" dataType="double">
					<FieldRef field="x140"/>
				</DerivedField>
			</NeuralInput>
			<NeuralInput id="input/141">
				<DerivedField optype="continuous" dataType="double">
					<FieldRef field="x141"/>
				</DerivedField>
			</NeuralInput>
			<NeuralInput id="input/142">
				<DerivedField optype="continuous" dataType="double">
					<FieldRef field="x142"/>
				</DerivedField>
			</NeuralInput>
			<NeuralInput id="input/143">
				<DerivedField optype="continuous" dataType="double">
					<FieldRef field="x143"/>
				</DerivedField>
			</NeuralInput>
			<NeuralInput id="input/144">
				<DerivedField optype="continuous" dataType="double">
					<FieldRef field="x144"/>
				</DerivedField>
			</NeuralInput>
			<NeuralInput id="input/145">
				<DerivedField optype="continuous" dataType="double">
					<FieldRef field="x145"/>
				</DerivedField>
			</NeuralInput>
			<NeuralInput id="input/146">
				<DerivedField optype="continuous" dataType="double">
					<FieldRef field="x146"/>
				</DerivedField>
			</NeuralInput>
			<NeuralInput id="input/147">
				<DerivedField optype="continuous" dataType="double">
					<FieldRef field="x147"/>
				</DerivedField>
			</NeuralInput>
			<NeuralInput id="input/148">
				<DerivedField optype="continuous" dataType="double">
					<FieldRef field="x148"/>
				</DerivedField>
			</NeuralInput>
			<NeuralInput id="input/149">
				<DerivedField optype="continuous" dataType="double">
					<FieldRef field="x149"/>
				</DerivedField>
			</NeuralInput>
			<NeuralInput id="input/150">
				<DerivedField optype="continuous" dataType="double">
					<FieldRef field="x150"/>
				</DerivedField>
			</NeuralInput>
			<NeuralInput id="input/151">
				<DerivedField optype="continuous" dataType="double">
					<FieldRef field="x151"/>
				</DerivedField>
			</NeuralInput>
			<NeuralInput id="input/152">
				<DerivedField optype="continuous" dataType="double">
					<FieldRef field="x152"/>
				</DerivedField>
			</NeuralInput>
			<NeuralInput id="input/153">
				<DerivedField optype="continuous" dataType="double">
					<FieldRef field="x153"/>
				</DerivedField>
			</NeuralInput>
			<NeuralInput id="input/154">
				<DerivedField optype="continuous" dataType="double">
					<FieldRef field="x154"/>
				</DerivedField>
			</NeuralInput>
			<NeuralInput id="input/155">
				<DerivedField optype="continuous" dataType="double">
					<FieldRef field="x155"/>
				</DerivedField>
			</NeuralInput>
			<NeuralInput id="input/156">
				<DerivedField optype="continuous" dataType="double">
					<FieldRef field="x156"/>
				</DerivedField>
			</NeuralInput>
			<NeuralInput id="input/157">
				<DerivedField optype="continuous" dataType="double">
					<FieldRef field="x157"/>
				</DerivedField>
			</NeuralInput>
			<NeuralInput id="input/158">
				<DerivedField optype="continuous" dataType="double">
					<FieldRef field="x158"/>
				</DerivedField>
			</NeuralInput>
			<NeuralInput id="input/159">
				<DerivedField optype="continuous" dataType="double">
					<FieldRef field="x159"/>
				</DerivedField>
			</NeuralInput>
			<NeuralInput id="input/160">
				<DerivedField optype="continuous" dataType="double">
					<FieldRef field="x160"/>
				</DerivedField>
			</NeuralInput>
			<NeuralInput id="input/161">
				<DerivedField optype="continuous" dataType="double">
					<FieldRef field="x161"/>
				</DerivedField>
			</NeuralInput>
			<NeuralInput id="input/162">
				<DerivedField optype="continuous" dataType="double">
					<FieldRef field="x162"/>
				</DerivedField>
			</NeuralInput>
			<NeuralInput id="input/163">
				<DerivedField optype="continuous" dataType="double">
					<FieldRef field="x163"/>
				</DerivedField>
			</NeuralInput>
			<NeuralInput id="input/164">
				<DerivedField optype="continuous" dataType="double">
					<FieldRef field="x164"/>
				</DerivedField>
			</NeuralInput>
			<NeuralInput id="input/165">
				<DerivedField optype="continuous" dataType="double">
					<FieldRef field="x165"/>
				</DerivedField>
			</NeuralInput>
			<NeuralInput id="input/166">
				<DerivedField optype="continuous" dataType="double">
					<FieldRef field="x166"/>
				</DerivedField>
			</NeuralInput>
			<NeuralInput id="input/167">
				<DerivedField optype="continuous" dataType="double">
					<FieldRef field="x167"/>
				</DerivedField>
			</NeuralInput>
			<NeuralInput id="input/168">
				<DerivedField optype="continuous" dataType="double">
					<FieldRef field="x168"/>
				</DerivedField>
			</NeuralInput>
			<NeuralInput id="input/169">
				<DerivedField optype="continuous" dataType="double">
					<FieldRef field="x169"/>
				</DerivedField>
			</NeuralInput>
			<NeuralInput id="input/170">
				<DerivedField optype="continuous" dataType="double">
					<FieldRef field="x170"/>
				</DerivedField>
			</NeuralInput>
			<NeuralInput id="input/171">
				<DerivedField optype="continuous" dataType="double">
					<FieldRef field="x171"/>
				</DerivedField>
			</NeuralInput>
			<NeuralInput id="input/172">
				<DerivedField optype="continuous" dataType="double">
					<FieldRef field="x172"/>
				</DerivedField>
			</NeuralInput>
			<NeuralInput id="input/173">
				<DerivedField optype="continuous" dataType="double">
					<FieldRef field="x173"/>
				</DerivedField>
			</NeuralInput>
			<NeuralInput id="input/174">
				<DerivedField optype="continuous" dataType="double">
					<FieldRef field="x174"/>
				</DerivedField>
			</NeuralInput>
			<NeuralInput id="input/175">
				<DerivedField optype="continuous" dataType="double">
					<FieldRef field="x175"/>
				</DerivedField>
			</NeuralInput>
			<NeuralInput id="input/176">
				<DerivedField optype="continuous" dataType="double">
					<FieldRef field="x176"/>
				</DerivedField>
			</NeuralInput>
			<NeuralInput id="input/177">
				<DerivedField optype="continuous" dataType="double">
					<FieldRef field="x177"/>
				</DerivedField>
			</NeuralInput>
			<NeuralInput id="input/178">
				<DerivedField optype="continuous" dataType="double">
					<FieldRef field="x178"/>
				</DerivedField>
			</NeuralInput>
		</NeuralInputs>
		<NeuralLayer>
			<Neuron id="1/1" bias="0.1261727243895608">
				<Con from="input/1" weight="-0.021553820445375405"/>
				<Con from="input/2" weight="-0.006981017667886131"/>
				<Con from="input/3" weight="0.14023591830241636"/>
				<Con from="input/4" weight="-0.06794254028286832"/>
				<Con from="input/5" weight="0.08743622443287954"/>
				<Con from="input/6" weight="0.11143231465216662"/>
				<Con from="input/7" weight="0.03411593546056648"/>
				<Con from="input/8" weight="0.08388946569317021"/>
				<Con from="input/9" weight="0.011115399702486928"/>
				<Con from="input/10" weight="0.08810424180651201"/>
				<Con from="input/11" weight="0.07427375185649876"/>
				<Con from="input/12" weight="-0.055217118048329905"/>
				<Con from="input/13" weight="-0.0887558309658934"/>
				<Con from="input/14" weight="-0.03872959349177526"/>
				<Con from="input/15" weight="-0.09925895584555611"/>
				<Con from="input/16" weight="0.032073271321359786"/>
				<Con from="input/17" weight="-0.1507660672348263"/>
				<Con from="input/18" weight="-0.01184866650892152"/>
				<Con from="input/19" weight="0.0763435607288015"/>
				<Con from="input/20" weight="0.08747921885162903"/>
				<Con from="input/21" weight="0.020361654665654115"/>
				<Con from="input/22" weight="-0.0600127892078083"/>
				<Con from="input/23" weight="0.07005689543079086"/>
				<Con from="input/24" weight="0.032290093974631555"/>
				<Con from="input/25" weight="0.11193022296194624"/>
				<Con from="input/26" weight="0.1636665852220196"/>
				<Con from="input/27" weight="0.14090962515067007"/>
				<Con from="input/28" weight="0.148613914916791"/>
				<Con from="input/29" weight="-0.04657840910507604"/>
				<Con from="input/30" weight="-0.05498587777328849"/>
				<Con from="input/31" weight="0.09488143522952944"/>
				<Con from="input/32" weight="-0.13529857958820257"/>
				<Con from="input/33" weight="0.04617454491306484"/>
				<Con from="input/34" weight="-0.14608593633450334"/>
				<Con from="input/35" weight="-0.03130965489712362"/>
				<Con from="input/36" weight="-0.03560271740299422"/>
				<Con from="input/37" weight="-0.10951663473059657"/>
				<Con from="input/38" weight="0.008787839651553633"/>
				<Con from="input/39" weight="-0.14013262311844651"/>
				<Con from="input/40" weight="-0.04646810248043472"/>
				<Con from="input/41" weight="-0.006531981329065035"/>
				<Con from="input/42" weight="-0.05587430407801848"/>
				<Con from="input/43" weight="0.09020304562503317"/>
				<Con from="input/44" weight="-0.05043483500404183"/>
				<Con from="input/45" weight="0.05301812584697135"/>
				<Con from="input/46" weight="0.12222613192402006"/>
				<Con from="input/47" weight="-0.02994910070565859"/>
				<Con from="input/48" weight="-6.102812018101705E-4"/>
				<Con from="input/49" weight="0.014599721125529225"/>
				<Con from="input/50" weight="-0.14000920123114136"/>
				<Con from="input/51" weight="0.05718390647029025"/>
				<Con from="input/52" weight="-0.0039360967510145345"/>
				<Con from="input/53" weight="-0.02845230075522259"/>
				<Con from="input/54" weight="0.003931735856399391"/>
				<Con from="input/55" weight="-0.04217547097887065"/>
				<Con from="input/56" weight="-0.034675676311180036"/>
				<Con from="input/57" weight="0.12169472373147298"/>
				<Con from="input/58" weight="0.1444402223361114"/>
				<Con from="input/59" weight="-0.053423273939657734"/>
				<Con from="input/60" weight="-0.06219586076076883"/>
				<Con from="input/61" weight="-0.06088422843920208"/>
				<Con from="input/62" weight="-0.0972278870649405"/>
				<Con from="input/63" weight="0.034937715725807304"/>
				<Con from="input/64" weight="-0.037652519364668915"/>
				<Con from="input/65" weight="-0.10112612204301852"/>
				<Con from="input/66" weight="-0.033283300162786286"/>
				<Con from="input/67" weight="0.09201308440958321"/>
				<Con from="input/68" weight="0.06217480843131876"/>
				<Con from="input/69" weight="0.05835532577377545"/>
				<Con from="input/70" weight="-0.11915762739937415"/>
				<Con from="input/71" weight="-0.0019463025212322425"/>
				<Con from="input/72" weight="-0.15147332528101806"/>
				<Con from="input/73" weight="0.09267859236659647"/>
				<Con from="input/74" weight="0.068525719647544"/>
				<Con from="input/75" weight="-0.08537261401072119"/>
				<Con from="input/76" weight="-0.028792190069480007"/>
				<Con from="input/77" weight="-0.10591272607926518"/>
				<Con from="input/78" weight="0.07186737270003461"/>
				<Con from="input/79" weight="-0.07202332032425696"/>
				<Con from="input/80" weight="-0.14120463420857213"/>
				<Con from="input/81" weight="0.06581587243639332"/>
				<Con from="input/82" weight="0.018695404249885278"/>
				<Con from="input/83" weight="0.13868727457156402"/>
				<Con from="input/84" weight="0.020976390006398143"/>
				<Con from="input/85" weight="-0.11043702466976255"/>
				<Con from="input/86" weight="-0.10901729966796622"/>
				<Con from="input/87" weight="-0.02271339687144039"/>
				<Con from="input/88" weight="0.05481629097532891"/>
				<Con from="input/89" weight="-0.10834065260984728"/>
				<Con from="input/90" weight="0.07678397723002711"/>
				<Con from="input/91" weight="0.08580446443670704"/>
				<Con from="input/92" weight="-0.0813031406082422"/>
				<Con from="input/93" weight="0.044413785512734935"/>
				<Con from="input/94" weight="-0.02607925594764379"/>
				<Con from="input/95" weight="-0.13672577845831685"/>
				<Con from="input/96" weight="-0.10814641320772854"/>
				<Con from="input/97" weight="-0.1274019884974575"/>
				<Con from="input/98" weight="-0.11663951875951288"/>
				<Con from="input/99" weight="-0.0704714900934954"/>
				<Con from="input/100" weight="-0.11143383139232918"/>
				<Con from="input/101" weight="0.06618219264531501"/>
				<Con from="input/102" weight="-0.056507733921400134"/>
				<Con from="input/103" weight="-0.08590897982360339"/>
				<Con from="input/104" weight="-0.05121365372965905"/>
				<Con from="input/105" weight="-0.07487466506859633"/>
				<Con from="input/106" weight="0.11116427594604414"/>
				<Con from="input/107" weight="-0.11989055818825985"/>
				<Con from="input/108" weight="-0.1229610553744355"/>
				<Con from="input/109" weight="-0.13352021379423118"/>
				<Con from="input/110" weight="-0.10618838278292309"/>
				<Con from="input/111" weight="0.05658293259514872"/>
				<Con from="input/112" weight="-0.030112332886511543"/>
				<Con from="input/113" weight="0.08069435962009346"/>
				<Con from="input/114" weight="0.038158839605700365"/>
				<Con from="input/115" weight="-0.029211195016731112"/>
				<Con from="input/116" weight="0.04070959717678324"/>
				<Con from="input/117" weight="-0.03594555364293221"/>
				<Con from="input/118" weight="-0.04055309115222692"/>
				<Con from="input/119" weight="0.10547428836249054"/>
				<Con from="input/120" weight="-0.12346623699270169"/>
				<Con from="input/121" weight="0.05139288096291048"/>
				<Con from="input/122" weight="0.013204511391550967"/>
				<Con from="input/123" weight="-0.015045220453106146"/>
				<Con from="input/124" weight="0.03710759784467484"/>
				<Con from="input/125" weight="-0.08370479783375245"/>
				<Con from="input/126" weight="0.024019459860568186"/>
				<Con from="input/127" weight="-0.05895282623357987"/>
				<Con from="input/128" weight="0.1034793042781057"/>
				<Con from="input/129" weight="-0.1411016069182721"/>
				<Con from="input/130" weight="-0.08698918027728528"/>
				<Con from="input/131" weight="-0.1411525587284436"/>
				<Con from="input/132" weight="-0.023800241443372696"/>
				<Con from="input/133" weight="0.016075714861325766"/>
				<Con from="input/134" weight="-0.03892032928151226"/>
				<Con from="input/135" weight="0.0764127523986038"/>
				<Con from="input/136" weight="0.06101546523110097"/>
				<Con from="input/137" weight="0.10914989769517117"/>
				<Con from="input/138" weight="0.011823935408396068"/>
				<Con from="input/139" weight="-0.11208372456353316"/>
				<Con from="input/140" weight="-0.06454916641141893"/>
				<Con from="input/141" weight="-0.10010139919532775"/>
				<Con from="input/142" weight="0.11240434330575273"/>
				<Con from="input/143" weight="-0.0635683040337653"/>
				<Con from="input/144" weight="0.058535393628880675"/>
				<Con from="input/145" weight="0.10448353464797688"/>
				<Con from="input/146" weight="-0.035418088963568184"/>
				<Con from="input/147" weight="0.0873014468591868"/>
				<Con from="input/148" weight="-0.10885800745382403"/>
				<Con from="input/149" weight="0.1490022702824028"/>
				<Con from="input/150" weight="0.009704261492577826"/>
				<Con from="input/151" weight="0.11707767561724922"/>
				<Con from="input/152" weight="0.05419636064932461"/>
				<Con from="input/153" weight="0.039992553283975524"/>
				<Con from="input/154" weight="-0.18283119186462177"/>
				<Con from="input/155" weight="-0.14663317312750454"/>
				<Con from="input/156" weight="-0.05457800127325085"/>
				<Con from="input/157" weight="0.006993272890260452"/>
				<Con from="input/158" weight="-0.0659669026147128"/>
				<Con from="input/159" weight="0.08346310434838229"/>
				<Con from="input/160" weight="-0.106564701027938"/>
				<Con from="input/161" weight="-0.14044503449251686"/>
				<Con from="input/162" weight="0.03201550644855473"/>
				<Con from="input/163" weight="-0.0668080667147613"/>
				<Con from="input/164" weight="-0.08721546849024082"/>
				<Con from="input/165" weight="-0.00825140494675356"/>
				<Con from="input/166" weight="0.07002000833741474"/>
				<Con from="input/167" weight="0.034869679434049276"/>
				<Con from="input/168" weight="-0.09140630828447187"/>
				<Con from="input/169" weight="-0.09072489971743476"/>
				<Con from="input/170" weight="0.11143508638583041"/>
				<Con from="input/171" weight="-0.0030346162868408466"/>
				<Con from="input/172" weight="0.15054352914518185"/>
				<Con from="input/173" weight="0.08146298446567099"/>
				<Con from="input/174" weight="0.03538224281727514"/>
				<Con from="input/175" weight="-0.020328822960348672"/>
				<Con from="input/176" weight="0.15496253092427578"/>
				<Con from="input/177" weight="0.12867196863025454"/>
				<Con from="input/178" weight="-0.07501364258966971"/>
			</Neuron>
			<Neuron id="1/2" bias="-0.1582441161643028">
				<Con from="input/1" weight="-0.08447559137465752"/>
				<Con from="input/2" weight="0.06946001746420977"/>
				<Con from="input/3" weight="0.07893370279738629"/>
				<Con from="input/4" weight="-0.09828174736670293"/>
				<Con from="input/5" weight="0.049149680169474026"/>
				<Con from="input/6" weight="-0.09974331820076708"/>
				<Con from="input/7" weight="-0.05731117548371141"/>
				<Con from="input/8" weight="0.030203376409165882"/>
				<Con from="input/9" weight="0.11420653113281921"/>
				<Con from="input/10" weight="-0.07872194232393945"/>
				<Con from="input/11" weight="0.05548786389779985"/>
				<Con from="input/12" weight="0.17219736837462216"/>
				<Con from="input/13" weight="0.1939345449331764"/>
				<Con from="input/14" weight="-6.589021550264738E-4"/>
				<Con from="input/15" weight="0.2058638129584093"/>
				<Con from="input/16" weight="0.10642950777494972"/>
				<Con from="input/17" weight="0.19418668426437735"/>
				<Con from="input/18" weight="0.05525257033646346"/>
				<Con from="input/19" weight="0.03287590503092806"/>
				<Con from="input/20" weight="-0.06671861642419659"/>
				<Con from="input/21" weight="-0.09114393678219523"/>
				<Con from="input/22" weight="0.09118030059719893"/>
				<Con from="input/23" weight="0.06003433452805512"/>
				<Con from="input/24" weight="0.24233763106871387"/>
				<Con from="input/25" weight="0.12522209872150375"/>
				<Con from="input/26" weight="0.03428138323570048"/>
				<Con from="input/27" weight="6.64814819133199E-4"/>
				<Con from="input/28" weight="-0.05668783749419082"/>
				<Con from="input/29" weight="-0.12303274791141952"/>
				<Con from="input/30" weight="-0.1358904306676233"/>
				<Con from="input/31" weight="0.0321669200268716"/>
				<Con from="input/32" weight="0.06376778818881766"/>
				<Con from="input/33" weight="0.09925715487349335"/>
				<Con from="input/34" weight="0.17773612460670987"/>
				<Con from="input/35" weight="-0.07079932085003592"/>
				<Con from="input/36" weight="0.04051122754205664"/>
				<Con from="input/37" weight="-0.08010389858206644"/>
				<Con from="input/38" weight="0.08412076621495886"/>
				<Con from="input/39" weight="-0.12092593036067817"/>
				<Con from="input/40" weight="0.005162233142146537"/>
				<Con from="input/41" weight="-0.10148683696034597"/>
				<Con from="input/42" weight="0.09628956296330926"/>
				<Con from="input/43" weight="0.10558584685958508"/>
				<Con from="input/44" weight="0.12225811700597078"/>
				<Con from="input/45" weight="-0.11105788432017948"/>
				<Con from="input/46" weight="-0.061285377945029224"/>
				<Con from="input/47" weight="-0.014128204514693094"/>
				<Con from="input/48" weight="0.008499091233036566"/>
				<Con from="input/49" weight="-0.014070303666372573"/>
				<Con from="input/50" weight="0.028187893309539958"/>
				<Con from="input/51" weight="0.0019049135681526595"/>
				<Con from="input/52" weight="0.059639176775504885"/>
				<Con from="input/53" weight="-0.08198198678123637"/>
				<Con from="input/54" weight="0.13518948243984003"/>
				<Con from="input/55" weight="-0.1604673963632129"/>
				<Con from="input/56" weight="-0.08331109376578011"/>
				<Con from="input/57" weight="-0.00727673873637578"/>
				<Con from="input/58" weight="-0.10789746082669871"/>
				<Con from="input/59" weight="-0.023755003569941497"/>
				<Con from="input/60" weight="0.07012558242868679"/>
				<Con from="input/61" weight="-0.1105438487307394"/>
				<Con from="input/62" weight="-0.016406467834486824"/>
				<Con from="input/63" weight="0.021774604612254247"/>
				<Con from="input/64" weight="-3.526447166869485E-4"/>
				<Con from="input/65" weight="-0.06959623107372176"/>
				<Con from="input/66" weight="0.08434733190381159"/>
				<Con from="input/67" weight="0.08770282679946265"/>
				<Con from="input/68" weight="0.14273520550709287"/>
				<Con from="input/69" weight="0.07401383559235838"/>
				<Con from="input/70" weight="0.07761920732812379"/>
				<Con from="input/71" weight="-0.039170588320360765"/>
				<Con from="input/72" weight="-0.09238007080006737"/>
				<Con from="input/73" weight="0.06776003281510647"/>
				<Con from="input/74" weight="-0.0018034099893958274"/>
				<Con from="input/75" weight="-0.04441471313613534"/>
				<Con from="input/76" weight="-0.12388711906573173"/>
				<Con from="input/77" weight="0.0131130746949857"/>
				<Con from="input/78" weight="-0.20419993160989774"/>
				<Con from="input/79" weight="-0.0698054638725362"/>
				<Con from="input/80" weight="-0.053703272872392585"/>
				<Con from="input/81" weight="-0.15972309150381228"/>
				<Con from="input/82" weight="-0.06468575550855259"/>
				<Con from="input/83" weight="0.008583969766175033"/>
				<Con from="input/84" weight="-0.08781515990177341"/>
				<Con from="input/85" weight="0.0616828390428859"/>
				<Con from="input/86" weight="-0.037429538482644"/>
				<Con from="input/87" weight="-0.1473438939594289"/>
				<Con from="input/88" weight="0.12350855038845893"/>
				<Con from="input/89" weight="0.12674035629127134"/>
				<Con from="input/90" weight="0.17318911884718205"/>
				<Con from="input/91" weight="0.17283643653094966"/>
				<Con from="input/92" weight="-0.11244736527798675"/>
				<Con from="input/93" weight="0.001983713772807012"/>
				<Con from="input/94" weight="-0.0677035989834188"/>
				<Con from="input/95" weight="0.025398114605250547"/>
				<Con from="input/96" weight="-0.0695020228225689"/>
				<Con from="input/97" weight="0.07917039050749931"/>
				<Con from="input/98" weight="0.05577846823761841"/>
				<Con from="input/99" weight="0.11706535511915367"/>
				<Con from="input/100" weight="0.11324327048914298"/>
				<Con from="input/101" weight="0.029569490234699985"/>
				<Con from="input/102" weight="0.125337632673042"/>
				<Con from="input/103" weight="-0.14114541418558949"/>
				<Con from="input/104" weight="0.009499851794663998"/>
				<Con from="input/105" weight="-0.09338242294215825"/>
				<Con from="input/106" weight="0.03809202542198858"/>
				<Con from="input/107" weight="0.16199710649100374"/>
				<Con from="input/108" weight="-0.006062656009065611"/>
				<Con from="input/109" weight="0.05208153756081837"/>
				<Con from="input/110" weight="0.04632246227469237"/>
				<Con from="input/111" weight="0.03671786420225115"/>
				<Con from="input/112" weight="0.11920137184398599"/>
				<Con from="input/113" weight="-0.10562006085833753"/>
				<Con from="input/114" weight="0.021362891441675535"/>
				<Con from="input/115" weight="-0.09062974994390569"/>
				<Con from="input/116" weight="-0.12103584501364412"/>
				<Con from="input/117" weight="0.16312536495696164"/>
				<Con from="input/118" weight="-0.03668641833119178"/>
				<Con from="input/119" weight="0.16399777068017266"/>
				<Con from="input/120" weight="0.004651056286036562"/>
				<Con from="input/121" weight="0.07555392128946233"/>
				<Con from="input/122" weight="-0.12448889240861673"/>
				<Con from="input/123" weight="-0.05900276229837871"/>
				<Con from="input/124" weight="0.04020183936787653"/>
				<Con from="input/125" weight="0.0925127515989552"/>
				<Con from="input/126" weight="-0.028510337069231024"/>
				<Con from="input/127" weight="0.030085757995262443"/>
				<Con from="input/128" weight="0.18606698786069173"/>
				<Con from="input/129" weight="0.2256751353454202"/>
				<Con from="input/130" weight="0.16210035653060811"/>
				<Con from="input/131" weight="-0.022191899441592996"/>
				<Con from="input/132" weight="0.19236115485883107"/>
				<Con from="input/133" weight="9.723930802115677E-4"/>
				<Con from="input/134" weight="0.03195742416981405"/>
				<Con from="input/135" weight="0.06802812125178509"/>
				<Con from="input/136" weight="-0.03580169556315544"/>
				<Con from="input/137" weight="-0.05436276240530718"/>
				<Con from="input/138" weight="-0.025343179134065096"/>
				<Con from="input/139" weight="-0.02249785707714411"/>
				<Con from="input/140" weight="-0.11019017535137907"/>
				<Con from="input/141" weight="-0.014396124368215848"/>
				<Con from="input/142" weight="-0.11794834892702483"/>
				<Con from="input/143" weight="-0.06552614183556865"/>
				<Con from="input/144" weight="-0.06459610750541217"/>
				<Con from="input/145" weight="-0.06409005181594354"/>
				<Con from="input/146" weight="0.059364959993830325"/>
				<Con from="input/147" weight="0.11052438896614726"/>
				<Con from="input/148" weight="0.012818471908773624"/>
				<Con from="input/149" weight="-0.21432197904510214"/>
				<Con from="input/150" weight="-0.1761868394919367"/>
				<Con from="input/151" weight="-0.18040748140641774"/>
				<Con from="input/152" weight="-0.1609273992936365"/>
				<Con from="input/153" weight="-0.1089753317434858"/>
				<Con from="input/154" weight="-0.0668564652899163"/>
				<Con from="input/155" weight="0.025575809081203278"/>
				<Con from="input/156" weight="-0.061033034459809815"/>
				<Con from="input/157" weight="0.018270501766319964"/>
				<Con from="input/158" weight="0.05793130329965996"/>
				<Con from="input/159" weight="0.09863379293505106"/>
				<Con from="input/160" weight="0.061498249054956655"/>
				<Con from="input/161" weight="0.041825333793035865"/>
				<Con from="input/162" weight="-0.015801913921426186"/>
				<Con from="input/163" weight="-0.0038880117702470938"/>
				<Con from="input/164" weight="0.1356046564407866"/>
				<Con from="input/165" weight="-0.005341718530188049"/>
				<Con from="input/166" weight="0.16735138164235341"/>
				<Con from="input/167" weight="0.2013572680160544"/>
				<Con from="input/168" weight="0.059159868617461905"/>
				<Con from="input/169" weight="0.007668298952931349"/>
				<Con from="input/170" weight="0.09477896836260472"/>
				<Con from="input/171" weight="-0.11620885690497468"/>
				<Con from="input/172" weight="0.02920656001432668"/>
				<Con from="input/173" weight="0.18034845143399075"/>
				<Con from="input/174" weight="0.09010973824364697"/>
				<Con from="input/175" weight="0.013571461614884"/>
				<Con from="input/176" weight="-0.11272670187830065"/>
				<Con from="input/177" weight="-0.07124949949054216"/>
				<Con from="input/178" weight="3.6037650461249755E-4"/>
			</Neuron>
			<Neuron id="1/3" bias="-0.12380106126352727">
				<Con from="input/1" weight="-0.08467910486492955"/>
				<Con from="input/2" weight="-0.09389991519790289"/>
				<Con from="input/3" weight="0.08557008732354916"/>
				<Con from="input/4" weight="0.14049875647932325"/>
				<Con from="input/5" weight="-0.11405800971143153"/>
				<Con from="input/6" weight="0.1457185886337613"/>
				<Con from="input/7" weight="-0.03881032518336681"/>
				<Con from="input/8" weight="-0.06654466691717056"/>
				<Con from="input/9" weight="-0.04047306779607093"/>
				<Con from="input/10" weight="0.038986050250616085"/>
				<Con from="input/11" weight="-0.045553838364149404"/>
				<Con from="input/12" weight="-0.04542498314283773"/>
				<Con from="input/13" weight="-0.1325099415849283"/>
				<Con from="input/14" weight="-0.01720675132084547"/>
				<Con from="input/15" weight="0.09374460930440262"/>
				<Con from="input/16" weight="0.10507876804250543"/>
				<Con from="input/17" weight="0.10448875101776335"/>
				<Con from="input/18" weight="0.025657592700003947"/>
				<Con from="input/19" weight="-0.030948321691166028"/>
				<Con from="input/20" weight="-0.09496834664668576"/>
				<Con from="input/21" weight="-0.08314161798896282"/>
				<Con from="input/22" weight="-0.034058131419506754"/>
				<Con from="input/23" weight="0.06316607860218541"/>
				<Con from="input/24" weight="-0.09911337034204647"/>
				<Con from="input/25" weight="-0.008244264510291432"/>
				<Con from="input/26" weight="0.07333615435049752"/>
				<Con from="input/27" weight="0.03906873179437714"/>
				<Con from="input/28" weight="0.13716645113236806"/>
				<Con from="input/29" weight="0.09953626388528078"/>
				<Con from="input/30" weight="0.053162297719424184"/>
				<Con from="input/31" weight="-0.09924074224236633"/>
				<Con from="input/32" weight="0.10604965237985957"/>
				<Con from="input/33" weight="0.10321523378511795"/>
				<Con from="input/34" weight="-0.02861064825398181"/>
				<Con from="input/35" weight="-0.08966180589700765"/>
				<Con from="input/36" weight="-0.178499708898507"/>
				<Con from="input/37" weight="-0.04107133529238441"/>
				<Con from="input/38" weight="-0.049437332728687444"/>
				<Con from="input/39" weight="-0.04328056656579747"/>
				<Con from="input/40" weight="0.038077989701924934"/>
				<Con from="input/41" weight="0.05291066700303239"/>
				<Con from="input/42" weight="0.14714332493539004"/>
				<Con from="input/43" weight="0.11318051410804311"/>
				<Con from="input/44" weight="0.009939521929069696"/>
				<Con from="input/45" weight="-0.09935672583067634"/>
				<Con from="input/46" weight="0.006507627757294922"/>
				<Con from="input/47" weight="-0.12538031048426312"/>
				<Con from="input/48" weight="0.04124148084930338"/>
				<Con from="input/49" weight="-0.10415416515067942"/>
				<Con from="input/50" weight="-0.016060284538058297"/>
				<Con from="input/51" weight="0.08903822980222248"/>
				<Con from="input/52" weight="0.09941154865562118"/>
				<Con from="input/53" weight="0.02421118375224489"/>
				<Con from="input/54" weight="0.12157893918996333"/>
				<Con from="input/55" weight="-0.1621375153728842"/>
				<Con from="input/56" weight="-0.03654081600099545"/>
				<Con from="input/57" weight="-0.16529081703277665"/>
				<Con from="input/58" weight="-0.09013705633264125"/>
				<Con from="input/59" weight="-0.12109194988174068"/>
				<Con from="input/60" weight="-0.1113820153891821"/>
				<Con from="input/61" weight="0.11781916681058023"/>
				<Con from="input/62" weight="0.010341612256193868"/>
				<Con from="input/63" weight="0.06438890441180102"/>
				<Con from="input/64" weight="0.015366680116385156"/>
				<Con from="input/65" weight="0.12015385656263639"/>
				<Con from="input/66" weight="0.0603610979439375"/>
				<Con from="input/67" weight="-0.13847428231314654"/>
				<Con from="input/68" weight="-0.028291444083132194"/>
				<Con from="input/69" weight="0.12460292395958023"/>
				<Con from="input/70" weight="0.1298146509795776"/>
				<Con from="input/71" weight="0.01687718563593366"/>
				<Con from="input/72" weight="-0.10027567539910644"/>
				<Con from="input/73" weight="-0.09452178287966136"/>
				<Con from="input/74" weight="0.004184711379819357"/>
				<Con from="input/75" weight="0.043630398951175355"/>
				<Con from="input/76" weight="0.03305324979916265"/>
				<Con from="input/77" weight="0.03726568073089159"/>
				<Con from="input/78" weight="-0.008178530452987434"/>
				<Con from="input/79" weight="0.020278171767338156"/>
				<Con from="input/80" weight="0.0983878836381037"/>
				<Con from="input/81" weight="0.07226695163742186"/>
				<Con from="input/82" weight="0.021126812695219124"/>
				<Con from="input/83" weight="-0.007792745793610235"/>
				<Con from="input/84" weight="-0.07845731404512855"/>
				<Con from="input/85" weight="0.13405910826418788"/>
				<Con from="input/86" weight="0.03230712624330876"/>
				<Con from="input/87" weight="-0.03212323213027866"/>
				<Con from="input/88" weight="-0.1635353964265514"/>
				<Con from="input/89" weight="0.04607165603058269"/>
				<Con from="input/90" weight="-0.08580874344437867"/>
				<Con from="input/91" weight="0.044437003018663684"/>
				<Con from="input/92" weight="-0.15178690023848831"/>
				<Con from="input/93" weight="-0.14234250691228198"/>
				<Con from="input/94" weight="0.08995057514425657"/>
				<Con from="input/95" weight="-0.14216092106033962"/>
				<Con from="input/96" weight="-0.006877281105972204"/>
				<Con from="input/97" weight="-0.10123105056136186"/>
				<Con from="input/98" weight="0.11994270495465578"/>
				<Con from="input/99" weight="0.025048681150622094"/>
				<Con from="input/100" weight="0.042264632310289506"/>
				<Con from="input/101" weight="-0.13279763748150775"/>
				<Con from="input/102" weight="0.13415602272030347"/>
				<Con from="input/103" weight="0.11382929988595751"/>
				<Con from="input/104" weight="0.09461661416722854"/>
				<Con from="input/105" weight="-0.026677146375733606"/>
				<Con from="input/106" weight="-0.0815749861317972"/>
				<Con from="input/107" weight="0.08548621836389132"/>
				<Con from="input/108" weight="-0.05094741638382879"/>
				<Con from="input/109" weight="0.12536724738978264"/>
				<Con from="input/110" weight="-0.030638704258292716"/>
				<Con from="input/111" weight="-0.05225724386512798"/>
				<Con from="input/112" weight="-0.0925681942283074"/>
				<Con from="input/113" weight="-0.10122275151524261"/>
				<Con from="input/114" weight="-0.09236460233561083"/>
				<Con from="input/115" weight="-0.06278783044640093"/>
				<Con from="input/116" weight="-0.05701775398672842"/>
				<Con from="input/117" weight="5.507331729116934E-4"/>
				<Con from="input/118" weight="0.07817208386496696"/>
				<Con from="input/119" weight="0.1129420653482505"/>
				<Con from="input/120" weight="-0.10291765018694864"/>
				<Con from="input/121" weight="-0.0691946701854578"/>
				<Con from="input/122" weight="-0.08634096034686314"/>
				<Con from="input/123" weight="0.15857951232837475"/>
				<Con from="input/124" weight="-0.0365699692803382"/>
				<Con from="input/125" weight="0.1493412751362933"/>
				<Con from="input/126" weight="-0.01642329560613393"/>
				<Con from="input/127" weight="0.17400976638928098"/>
				<Con from="input/128" weight="0.06165165137183656"/>
				<Con from="input/129" weight="-0.060105964007768145"/>
				<Con from="input/130" weight="0.034211614836981714"/>
				<Con from="input/131" weight="-0.03868588701343651"/>
				<Con from="input/132" weight="-0.1705179239432743"/>
				<Con from="input/133" weight="0.1044637240005768"/>
				<Con from="input/134" weight="-0.06163997753394354"/>
				<Con from="input/135" weight="-0.07133477569874554"/>
				<Con from="input/136" weight="-0.005229880324108018"/>
				<Con from="input/137" weight="0.08165018510439735"/>
				<Con from="input/138" weight="-0.044367844167411116"/>
				<Con from="input/139" weight="-0.07506132949789694"/>
				<Con from="input/140" weight="-0.09554739137896709"/>
				<Con from="input/141" weight="0.12979561340768295"/>
				<Con from="input/142" weight="0.08034289723702653"/>
				<Con from="input/143" weight="-0.05602323612353018"/>
				<Con from="input/144" weight="0.045493257699162466"/>
				<Con from="input/145" weight="-0.12524297844155238"/>
				<Con from="input/146" weight="0.05444387092696763"/>
				<Con from="input/147" weight="0.14637564986262389"/>
				<Con from="input/148" weight="0.12031803162840352"/>
				<Con from="input/149" weight="-0.05142407378070787"/>
				<Con from="input/150" weight="-0.09172031620341457"/>
				<Con from="input/151" weight="0.16812894566041475"/>
				<Con from="input/152" weight="0.060286547326695694"/>
				<Con from="input/153" weight="-0.07308744870673259"/>
				<Con from="input/154" weight="0.04561896478095195"/>
				<Con from="input/155" weight="0.12489991718295217"/>
				<Con from="input/156" weight="4.198046005284999E-5"/>
				<Con from="input/157" weight="0.027444645592130442"/>
				<Con from="input/158" weight="-0.09356120520412678"/>
				<Con from="input/159" weight="0.05094088369201069"/>
				<Con from="input/160" weight="0.036644816307582685"/>
				<Con from="input/161" weight="0.0945581318606964"/>
				<Con from="input/162" weight="0.11162864910063856"/>
				<Con from="input/163" weight="0.04697346594161487"/>
				<Con from="input/164" weight="0.11382609310598449"/>
				<Con from="input/165" weight="-0.03960983365160705"/>
				<Con from="input/166" weight="-0.12274679971268586"/>
				<Con from="input/167" weight="0.11981855294642645"/>
				<Con from="input/168" weight="0.09633734044234597"/>
				<Con from="input/169" weight="-0.12830417171511768"/>
				<Con from="input/170" weight="0.11854987236963754"/>
				<Con from="input/171" weight="-0.1132286402309109"/>
				<Con from="input/172" weight="0.018874977275247527"/>
				<Con from="input/173" weight="0.10876119499023028"/>
				<Con from="input/174" weight="0.13509697782729344"/>
				<Con from="input/175" weight="0.07108415486446946"/>
				<Con from="input/176" weight="0.05043409171364619"/>
				<Con from="input/177" weight="0.17301070113759823"/>
				<Con from="input/178" weight="0.1265588296605332"/>
			</Neuron>
			<Neuron id="1/4" bias="0.06826706238787805">
				<Con from="input/1" weight="-0.11638804166934388"/>
				<Con from="input/2" weight="-0.022892523071607534"/>
				<Con from="input/3" weight="-0.14001158693625484"/>
				<Con from="input/4" weight="-0.024121192121566572"/>
				<Con from="input/5" weight="0.02504521272592114"/>
				<Con from="input/6" weight="0.031699499240973074"/>
				<Con from="input/7" weight="-0.11623969435052282"/>
				<Con from="input/8" weight="-0.07027451439318175"/>
				<Con from="input/9" weight="-0.08860263191584786"/>
				<Con from="input/10" weight="0.08776632351255145"/>
				<Con from="input/11" weight="-0.0020841255293350463"/>
				<Con from="input/12" weight="-0.044847553655971484"/>
				<Con from="input/13" weight="-0.1590228159437429"/>
				<Con from="input/14" weight="0.061152245406523496"/>
				<Con from="input/15" weight="0.03617450797046251"/>
				<Con from="input/16" weight="-0.04621565123473921"/>
				<Con from="input/17" weight="-0.14153554689393222"/>
				<Con from="input/18" weight="0.113795300037105"/>
				<Con from="input/19" weight="-0.07649050699871071"/>
				<Con from="input/20" weight="-0.04486976770436268"/>
				<Con from="input/21" weight="0.0014952376020484805"/>
				<Con from="input/22" weight="0.15363925204863008"/>
				<Con from="input/23" weight="0.024060931833269576"/>
				<Con from="input/24" weight="-0.11772655157209728"/>
				<Con from="input/25" weight="-0.12590777382128457"/>
				<Con from="input/26" weight="0.051485706692494464"/>
				<Con from="input/27" weight="0.09207415415792648"/>
				<Con from="input/28" weight="0.04571148425956549"/>
				<Con from="input/29" weight="-0.10652184747980935"/>
				<Con from="input/30" weight="-0.04101793633368384"/>
				<Con from="input/31" weight="-0.042170880794724246"/>
				<Con from="input/32" weight="0.05684441704920862"/>
				<Con from="input/33" weight="0.018222691028830156"/>
				<Con from="input/34" weight="-0.17036676290653774"/>
				<Con from="input/35" weight="-0.01286345094498237"/>
				<Con from="input/36" weight="-0.04055615947734854"/>
				<Con from="input/37" weight="-0.15173832437770496"/>
				<Con from="input/38" weight="-0.10635230112916792"/>
				<Con from="input/39" weight="-0.12021082004766505"/>
				<Con from="input/40" weight="-0.006812184478559174"/>
				<Con from="input/41" weight="0.13165838678688088"/>
				<Con from="input/42" weight="0.12847960969295524"/>
				<Con from="input/43" weight="0.16756092885283813"/>
				<Con from="input/44" weight="0.054765801100086366"/>
				<Con from="input/45" weight="-0.00768966743855471"/>
				<Con from="input/46" weight="0.014537948774845792"/>
				<Con from="input/47" weight="-0.07893047878133315"/>
				<Con from="input/48" weight="-0.1325013628459979"/>
				<Con from="input/49" weight="0.04945855590887302"/>
				<Con from="input/50" weight="-0.02191621186375691"/>
				<Con from="input/51" weight="-0.12085754333650583"/>
				<Con from="input/52" weight="0.014477216755795167"/>
				<Con from="input/53" weight="-0.10388104373328089"/>
				<Con from="input/54" weight="-0.02661084401597096"/>
				<Con from="input/55" weight="-0.01761457475484248"/>
				<Con from="input/56" weight="0.004235328994634352"/>
				<Con from="input/57" weight="0.061360056860467416"/>
				<Con from="input/58" weight="0.11964453544634135"/>
				<Con from="input/59" weight="-0.10708301117441406"/>
				<Con from="input/60" weight="0.10076894698442254"/>
				<Con from="input/61" weight="-0.11141326968041367"/>
				<Con from="input/62" weight="-0.12115626215215895"/>
				<Con from="input/63" weight="-0.06558215294482451"/>
				<Con from="input/64" weight="-0.13473069612914945"/>
				<Con from="input/65" weight="0.0888908767771981"/>
				<Con from="input/66" weight="-0.03544470082480313"/>
				<Con from="input/67" weight="-0.14010154214509987"/>
				<Con from="input/68" weight="-0.13344535634969398"/>
				<Con from="input/69" weight="-0.05387490888693956"/>
				<Con from="input/70" weight="-0.1509898023891282"/>
				<Con from="input/71" weight="-0.024247917063255426"/>
				<Con from="input/72" weight="0.06999814646360575"/>
				<Con from="input/73" weight="-0.02171372048831108"/>
				<Con from="input/74" weight="0.10805993282329975"/>
				<Con from="input/75" weight="-0.11765646230691318"/>
				<Con from="input/76" weight="-0.0960947193710553"/>
				<Con from="input/77" weight="0.06851894364162245"/>
				<Con from="input/78" weight="0.15156725007577818"/>
				<Con from="input/79" weight="0.11505955664706409"/>
				<Con from="input/80" weight="-0.006436769339917705"/>
				<Con from="input/81" weight="-0.10817139257107868"/>
				<Con from="input/82" weight="0.09673013582872575"/>
				<Con from="input/83" weight="0.05543463583407059"/>
				<Con from="input/84" weight="-0.04260877356721147"/>
				<Con from="input/85" weight="-0.056497062097209776"/>
				<Con from="input/86" weight="-0.09668369515220665"/>
				<Con from="input/87" weight="-0.050660972419728514"/>
				<Con from="input/88" weight="-0.15348877888612764"/>
				<Con from="input/89" weight="0.05435204045890938"/>
				<Con from="input/90" weight="0.015187085126896295"/>
				<Con from="input/91" weight="0.07828726398580695"/>
				<Con from="input/92" weight="0.0625886771432438"/>
				<Con from="input/93" weight="0.07039837497030503"/>
				<Con from="input/94" weight="0.01570754728295676"/>
				<Con from="input/95" weight="-0.033555786598890934"/>
				<Con from="input/96" weight="0.08676070999408761"/>
				<Con from="input/97" weight="-0.11978980792203447"/>
				<Con from="input/98" weight="-0.16645081109976473"/>
				<Con from="input/99" weight="-0.01429375551424278"/>
				<Con from="input/100" weight="-0.09928993678457493"/>
				<Con from="input/101" weight="0.01772542295427653"/>
				<Con from="input/102" weight="-0.07774877132526196"/>
				<Con from="input/103" weight="0.07453280478294792"/>
				<Con from="input/104" weight="0.04690135884045808"/>
				<Con from="input/105" weight="-0.08081709210631668"/>
				<Con from="input/106" weight="-0.03656787183145534"/>
				<Con from="input/107" weight="0.03358368238578382"/>
				<Con from="input/108" weight="-0.12884796663952763"/>
				<Con from="input/109" weight="5.482619371024035E-4"/>
				<Con from="input/110" weight="-0.08224928475879886"/>
				<Con from="input/111" weight="-0.0020313043333616897"/>
				<Con from="input/112" weight="-0.13843872099205173"/>
				<Con from="input/113" weight="-0.08527232655654775"/>
				<Con from="input/114" weight="-0.01471532648881167"/>
				<Con from="input/115" weight="0.025449875235887473"/>
				<Con from="input/116" weight="0.045638832767983965"/>
				<Con from="input/117" weight="0.009876963650878649"/>
				<Con from="input/118" weight="0.025451655734777676"/>
				<Con from="input/119" weight="-0.14772177726590682"/>
				<Con from="input/120" weight="-0.09873531060910229"/>
				<Con from="input/121" weight="-0.02554336768600219"/>
				<Con from="input/122" weight="0.12261861773934361"/>
				<Con from="input/123" weight="-0.0423442445217842"/>
				<Con from="input/124" weight="-0.039864348915994934"/>
				<Con from="input/125" weight="0.007715718894454759"/>
				<Con from="input/126" weight="-0.010650516648038138"/>
				<Con from="input/127" weight="0.18016753004862984"/>
				<Con from="input/128" weight="0.030430613941618858"/>
				<Con from="input/129" weight="-0.0352401299785915"/>
				<Con from="input/130" weight="0.08970150665235839"/>
				<Con from="input/131" weight="-0.09812851705556955"/>
				<Con from="input/132" weight="-0.047167704421584786"/>
				<Con from="input/133" weight="-0.04980420349585681"/>
				<Con from="input/134" weight="-0.0035527929173434026"/>
				<Con from="input/135" weight="-0.093132744702028"/>
				<Con from="input/136" weight="-0.05324925061955067"/>
				<Con from="input/137" weight="-0.13940654827900906"/>
				<Con from="input/138" weight="-0.043905773715251"/>
				<Con from="input/139" weight="-0.12482889741057693"/>
				<Con from="input/140" weight="-0.09365747584713081"/>
				<Con from="input/141" weight="0.03489346666160529"/>
				<Con from="input/142" weight="0.10197997201573765"/>
				<Con from="input/143" weight="-0.08965388865694625"/>
				<Con from="input/144" weight="-0.05058829687820908"/>
				<Con from="input/145" weight="0.14351306338422223"/>
				<Con from="input/146" weight="0.04816466588640638"/>
				<Con from="input/147" weight="-0.01879302440486218"/>
				<Con from="input/148" weight="-0.04075928999569425"/>
				<Con from="input/149" weight="-0.04732498315460216"/>
				<Con from="input/150" weight="-0.022830870193803636"/>
				<Con from="input/151" weight="0.09754348769128253"/>
				<Con from="input/152" weight="0.03863046944103349"/>
				<Con from="input/153" weight="-0.13086046182646685"/>
				<Con from="input/154" weight="0.009035945697804684"/>
				<Con from="input/155" weight="-0.024337864111130425"/>
				<Con from="input/156" weight="-0.0753984403057186"/>
				<Con from="input/157" weight="0.1322503281353465"/>
				<Con from="input/158" weight="0.1507106465666092"/>
				<Con from="input/159" weight="0.17734231034292153"/>
				<Con from="input/160" weight="0.09675101248819488"/>
				<Con from="input/161" weight="-0.09760488501302021"/>
				<Con from="input/162" weight="0.057205143400125114"/>
				<Con from="input/163" weight="0.061122188220976474"/>
				<Con from="input/164" weight="-0.046016876927710705"/>
				<Con from="input/165" weight="0.13453547282806438"/>
				<Con from="input/166" weight="-0.010697629503654969"/>
				<Con from="input/167" weight="0.019865792783782067"/>
				<Con from="input/168" weight="-0.09456572731960632"/>
				<Con from="input/169" weight="-0.04587741784589846"/>
				<Con from="input/170" weight="0.0478783393208793"/>
				<Con from="input/171" weight="-0.07335090369504603"/>
				<Con from="input/172" weight="-0.05505095471554577"/>
				<Con from="input/173" weight="-0.08142262889823687"/>
				<Con from="input/174" weight="0.029306908208898863"/>
				<Con from="input/175" weight="0.1466288963919414"/>
				<Con from="input/176" weight="0.010604547594464485"/>
				<Con from="input/177" weight="-0.046592576974048325"/>
				<Con from="input/178" weight="-0.11550098258375352"/>
			</Neuron>
			<Neuron id="1/5" bias="0.17979282854589823">
				<Con from="input/1" weight="0.06703683761241873"/>
				<Con from="input/2" weight="-0.06839830942857758"/>
				<Con from="input/3" weight="-0.14851324381052436"/>
				<Con from="input/4" weight="0.045445422393459396"/>
				<Con from="input/5" weight="-0.18527067999897862"/>
				<Con from="input/6" weight="0.029818164064878732"/>
				<Con from="input/7" weight="0.0439910884730634"/>
				<Con from="input/8" weight="0.030316745268109565"/>
				<Con from="input/9" weight="-0.03224776376842044"/>
				<Con from="input/10" weight="0.011978208358334104"/>
				<Con from="input/11" weight="0.03931728859862841"/>
				<Con from="input/12" weight="0.08611806222561721"/>
				<Con from="input/13" weight="0.07854637197079976"/>
				<Con from="input/14" weight="0.04892641392393524"/>
				<Con from="input/15" weight="-0.06407087270864596"/>
				<Con from="input/16" weight="-0.09543367633709976"/>
				<Con from="input/17" weight="-0.0860999384439369"/>
				<Con from="input/18" weight="-0.08608332625341542"/>
				<Con from="input/19" weight="-0.04838982337147948"/>
				<Con from="input/20" weight="-0.19782334320029157"/>
				<Con from="input/21" weight="-0.17705336657693074"/>
				<Con from="input/22" weight="-0.15116718698096654"/>
				<Con from="input/23" weight="0.13806062664027802"/>
				<Con from="input/24" weight="0.17482586948371154"/>
				<Con from="input/25" weight="0.054941268062974426"/>
				<Con from="input/26" weight="-0.06926862232522397"/>
				<Con from="input/27" weight="-0.08639887679831473"/>
				<Con from="input/28" weight="0.13122789280174046"/>
				<Con from="input/29" weight="-0.09893508957092427"/>
				<Con from="input/30" weight="-0.09155139353363721"/>
				<Con from="input/31" weight="-0.04942412808385076"/>
				<Con from="input/32" weight="-0.03301047496495565"/>
				<Con from="input/33" weight="-0.050407588752538875"/>
				<Con from="input/34" weight="0.010472494107640756"/>
				<Con from="input/35" weight="-0.07608199916866461"/>
				<Con from="input/36" weight="0.06558628667410575"/>
				<Con from="input/37" weight="-0.16221608428698098"/>
				<Con from="input/38" weight="-0.11217244151850923"/>
				<Con from="input/39" weight="-0.14907309117654963"/>
				<Con from="input/40" weight="0.0615935665813652"/>
				<Con from="input/41" weight="-0.004369959533013055"/>
				<Con from="input/42" weight="0.008169652079358016"/>
				<Con from="input/43" weight="0.017218926336533835"/>
				<Con from="input/44" weight="0.04945687139418735"/>
				<Con from="input/45" weight="-0.10660529004331973"/>
				<Con from="input/46" weight="-0.11104594934694642"/>
				<Con from="input/47" weight="-0.08780668102740376"/>
				<Con from="input/48" weight="-0.045983115229301395"/>
				<Con from="input/49" weight="-0.1253168797146809"/>
				<Con from="input/50" weight="-0.15099804682027335"/>
				<Con from="input/51" weight="-0.1258053307737789"/>
				<Con from="input/52" weight="-0.123799448511167"/>
				<Con from="input/53" weight="0.006816126170818431"/>
				<Con from="input/54" weight="-0.014151081991725576"/>
				<Con from="input/55" weight="-0.13293093666172698"/>
				<Con from="input/56" weight="0.0746600799068254"/>
				<Con from="input/57" weight="-0.0168439229314169"/>
				<Con from="input/58" weight="-0.12309304303752328"/>
				<Con from="input/59" weight="-0.20870391538605498"/>
				<Con from="input/60" weight="-0.10349525183879431"/>
				<Con from="input/61" weight="-0.06366539853049286"/>
				<Con from="input/62" weight="-0.22063876679447686"/>
				<Con from="input/63" weight="-0.13779536147315866"/>
				<Con from="input/64" weight="-0.028851443515192678"/>
				<Con from="input/65" weight="0.011542227195541124"/>
				<Con from="input/66" weight="0.017582992590154993"/>
				<Con from="input/67" weight="-0.023183950335051905"/>
				<Con from="input/68" weight="0.07443019823437347"/>
				<Con from="input/69" weight="-0.07728054407943734"/>
				<Con from="input/70" weight="-0.05163992552801834"/>
				<Con from="input/71" weight="-0.0810193975785775"/>
				<Con from="input/72" weight="0.021383547768941382"/>
				<Con from="input/73" weight="-0.08593020175268556"/>
				<Con from="input/74" weight="0.0721756314973342"/>
				<Con from="input/75" weight="0.13632051500128795"/>
				<Con from="input/76" weight="0.11098507301152244"/>
				<Con from="input/77" weight="-0.17159284557161428"/>
				<Con from="input/78" weight="-0.086879510854643"/>
				<Con from="input/79" weight="-0.10389257049501122"/>
				<Con from="input/80" weight="0.1038614834268357"/>
				<Con from="input/81" weight="0.14222865172524968"/>
				<Con from="input/82" weight="0.2161398636449781"/>
				<Con from="input/83" weight="0.008240243607827602"/>
				<Con from="input/84" weight="0.06228599487066116"/>
				<Con from="input/85" weight="-0.03551220742461575"/>
				<Con from="input/86" weight="-0.11359055830946004"/>
				<Con from="input/87" weight="0.06111862425527638"/>
				<Con from="input/88" weight="-0.11953970517261692"/>
				<Con from="input/89" weight="0.18112658741971654"/>
				<Con from="input/90" weight="-0.10681342649466224"/>
				<Con from="input/91" weight="0.09563716709925177"/>
				<Con from="input/92" weight="0.10823002737895017"/>
				<Con from="input/93" weight="0.08062050669147612"/>
				<Con from="input/94" weight="-0.09549188347123237"/>
				<Con from="input/95" weight="-0.05779225053624364"/>
				<Con from="input/96" weight="0.0052197374379927336"/>
				<Con from="input/97" weight="-0.04950239612575194"/>
				<Con from="input/98" weight="-0.10705402552468615"/>
				<Con from="input/99" weight="-0.003774665486535432"/>
				<Con from="input/100" weight="0.009301753086927551"/>
				<Con from="input/101" weight="-0.10652256124614631"/>
				<Con from="input/102" weight="-0.12657416230549814"/>
				<Con from="input/103" weight="0.010870181390991253"/>
				<Con from="input/104" weight="0.022984272930546078"/>
				<Con from="input/105" weight="0.011860282035429113"/>
				<Con from="input/106" weight="-0.06895401991837112"/>
				<Con from="input/107" weight="-0.14203956239447707"/>
				<Con from="input/108" weight="0.01975495522022986"/>
				<Con from="input/109" weight="0.0011181003555015116"/>
				<Con from="input/110" weight="0.034470808650749495"/>
				<Con from="input/111" weight="0.07962804296193488"/>
				<Con from="input/112" weight="0.04662180155737352"/>
				<Con from="input/113" weight="0.05964454505759243"/>
				<Con from="input/114" weight="0.04190418791565612"/>
				<Con from="input/115" weight="0.13893267459392006"/>
				<Con from="input/116" weight="0.12338394986826272"/>
				<Con from="input/117" weight="0.20656689012429127"/>
				<Con from="input/118" weight="0.05488018662140451"/>
				<Con from="input/119" weight="0.042771958589107234"/>
				<Con from="input/120" weight="0.03556746731493314"/>
				<Con from="input/121" weight="-0.020241741960865037"/>
				<Con from="input/122" weight="0.15224078817798553"/>
				<Con from="input/123" weight="0.07069535903837326"/>
				<Con from="input/124" weight="-7.767719520137171E-4"/>
				<Con from="input/125" weight="0.1536147383501659"/>
				<Con from="input/126" weight="-0.1708684442234547"/>
				<Con from="input/127" weight="-0.048294710275640744"/>
				<Con from="input/128" weight="-0.2172311934057203"/>
				<Con from="input/129" weight="-0.032693137414200164"/>
				<Con from="input/130" weight="-0.17100833962393489"/>
				<Con from="input/131" weight="-0.06759340002665733"/>
				<Con from="input/132" weight="0.15875647035830112"/>
				<Con from="input/133" weight="-0.05667811787746547"/>
				<Con from="input/134" weight="0.04835601109333343"/>
				<Con from="input/135" weight="0.06305012960045382"/>
				<Con from="input/136" weight="0.011523799351786617"/>
				<Con from="input/137" weight="-0.1170747617783149"/>
				<Con from="input/138" weight="-0.11605719291172834"/>
				<Con from="input/139" weight="-0.06488700975374502"/>
				<Con from="input/140" weight="-0.0912072648099736"/>
				<Con from="input/141" weight="-0.13968943955635046"/>
				<Con from="input/142" weight="0.10648488427595898"/>
				<Con from="input/143" weight="0.050878793858491214"/>
				<Con from="input/144" weight="0.09093963100797225"/>
				<Con from="input/145" weight="-0.01360997148786455"/>
				<Con from="input/146" weight="-8.74116953909944E-4"/>
				<Con from="input/147" weight="-0.08804320477569129"/>
				<Con from="input/148" weight="-0.12548170565798109"/>
				<Con from="input/149" weight="0.04774363083113247"/>
				<Con from="input/150" weight="0.11453100774605357"/>
				<Con from="input/151" weight="-0.06886519899062542"/>
				<Con from="input/152" weight="0.08069779781372587"/>
				<Con from="input/153" weight="-0.11123857825335967"/>
				<Con from="input/154" weight="0.09657309028005012"/>
				<Con from="input/155" weight="-0.09821560942236972"/>
				<Con from="input/156" weight="-0.02773438471940925"/>
				<Con from="input/157" weight="0.013164530468638748"/>
				<Con from="input/158" weight="0.06474018989677183"/>
				<Con from="input/159" weight="-0.09693855465911581"/>
				<Con from="input/160" weight="-0.10347178266636503"/>
				<Con from="input/161" weight="-0.006572875960271183"/>
				<Con from="input/162" weight="-0.24384825229026527"/>
				<Con from="input/163" weight="-0.027023029787091733"/>
				<Con from="input/164" weight="-0.06609323112677833"/>
				<Con from="input/165" weight="-0.1100727317749618"/>
				<Con from="input/166" weight="-0.16338649731584204"/>
				<Con from="input/167" weight="-0.08605464162405349"/>
				<Con from="input/168" weight="0.028522536216091438"/>
				<Con from="input/169" weight="0.1310303220655317"/>
				<Con from="input/170" weight="0.1145154358314787"/>
				<Con from="input/171" weight="-0.0661042247198904"/>
				<Con from="input/172" weight="0.1073002898523034"/>
				<Con from="input/173" weight="0.19788341681733462"/>
				<Con from="input/174" weight="0.15908894914964847"/>
				<Con from="input/175" weight="-0.06849958666226895"/>
				<Con from="input/176" weight="0.0939269057467348"/>
				<Con from="input/177" weight="-0.02808946158430228"/>
				<Con from="input/178" weight="0.241964929866444"/>
			</Neuron>
			<Neuron id="1/6" bias="0.14257702042689138">
				<Con from="input/1" weight="-0.07947302022668906"/>
				<Con from="input/2" weight="0.039892156997962405"/>
				<Con from="input/3" weight="0.07938646217036724"/>
				<Con from="input/4" weight="0.0677944989764481"/>
				<Con from="input/5" weight="1.669472329461001E-4"/>
				<Con from="input/6" weight="0.17126646949219312"/>
				<Con from="input/7" weight="0.04871344438365515"/>
				<Con from="input/8" weight="-0.11673411927290808"/>
				<Con from="input/9" weight="-0.0849785303947664"/>
				<Con from="input/10" weight="0.028371703365168713"/>
				<Con from="input/11" weight="-0.05087678691314108"/>
				<Con from="input/12" weight="-0.07260544882742695"/>
				<Con from="input/13" weight="0.07943553427338128"/>
				<Con from="input/14" weight="0.14692777602066462"/>
				<Con from="input/15" weight="-0.010243650081594774"/>
				<Con from="input/16" weight="0.06385727735736219"/>
				<Con from="input/17" weight="0.10291054573038497"/>
				<Con from="input/18" weight="0.01753633647843981"/>
				<Con from="input/19" weight="0.04875342025353962"/>
				<Con from="input/20" weight="-0.030204634623024248"/>
				<Con from="input/21" weight="-0.11241507919178763"/>
				<Con from="input/22" weight="-0.04849045313464808"/>
				<Con from="input/23" weight="-0.08404767153144926"/>
				<Con from="input/24" weight="0.15070140364386722"/>
				<Con from="input/25" weight="0.15937747150179138"/>
				<Con from="input/26" weight="0.06673306249345988"/>
				<Con from="input/27" weight="0.07018819586814823"/>
				<Con from="input/28" weight="-0.029964758116148443"/>
				<Con from="input/29" weight="0.08675922869202109"/>
				<Con from="input/30" weight="0.07706445957346007"/>
				<Con from="input/31" weight="0.02182207152919551"/>
				<Con from="input/32" weight="0.13472020793888317"/>
				<Con from="input/33" weight="0.08163514319471679"/>
				<Con from="input/34" weight="-0.04948571510912395"/>
				<Con from="input/35" weight="-0.07837109186094397"/>
				<Con from="input/36" weight="-0.10830279571748778"/>
				<Con from="input/37" weight="-0.02830288362456766"/>
				<Con from="input/38" weight="-0.1388937802259044"/>
				<Con from="input/39" weight="0.02409480416157824"/>
				<Con from="input/40" weight="0.09258772346589715"/>
				<Con from="input/41" weight="-0.12017910452468188"/>
				<Con from="input/42" weight="0.03439060245657991"/>
				<Con from="input/43" weight="0.018953362390883542"/>
				<Con from="input/44" weight="-0.13388820749661118"/>
				<Con from="input/45" weight="-0.06436731203666074"/>
				<Con from="input/46" weight="-0.02345184450898807"/>
				<Con from="input/47" weight="0.1346424789932334"/>
				<Con from="input/48" weight="-0.12955587305560004"/>
				<Con from="input/49" weight="-0.021420499922606653"/>
				<Con from="input/50" weight="0.0657079413533205"/>
				<Con from="input/51" weight="0.11755022920217856"/>
				<Con from="input/52" weight="0.028277233164891356"/>
				<Con from="input/53" weight="-0.08722388804724787"/>
				<Con from="input/54" weight="-0.05962424932385175"/>
				<Con from="input/55" weight="0.080515109610673"/>
				<Con from="input/56" weight="-0.07309088669423702"/>
				<Con from="input/57" weight="-0.007278504836014221"/>
				<Con from="input/58" weight="-0.08764199772948944"/>
				<Con from="input/59" weight="0.11963236506752947"/>
				<Con from="input/60" weight="-0.1252321784825377"/>
				<Con from="input/61" weight="-0.01528346589517351"/>
